SVM-light Version V6.20
0 # kernel type
3 # kernel parameter -d 
1 # kernel parameter -g 
1 # kernel parameter -s 
1 # kernel parameter -r 
empty# kernel parameter -u 
208245 # highest feature index 
65 # number of training documents 
2 # number of support vectors plus 1 
-1.9349629e-11 # threshold b, each following line is a SV (starting with alpha*y)
1 2:-0.035599146 3:-3.0034514e-20 4:0.08089897 5:-2.0023147e-20 6:-1.5017257e-20 7:-0.0067590149 8:-0.0082336282 9:-0.023875354 10:-0.042497404 11:-0.0069893412 12:0.040034205 13:-0.0075475862 15:-0.00049538916 16:-0.013658054 17:-2.0023147e-20 18:-0.090819351 19:-0.0058179074 20:-0.050871085 21:-1.6018415e-19 22:-0.034885641 23:-0.0064907735 24:-0.0081538465 26:-0.0005641607 29:-1.5017257e-20 30:-8.5098687e-20 31:-0.01415117 32:-2.0023147e-20 34:-7.508732e-20 35:-1.5017257e-20 37:-0.0072727441 38:-0.0051628593 40:-0.00074563595 41:-0.00013578415 42:-0.02450268 43:0.033784449 44:-0.030305898 45:-0.0056410949 47:-2.5028831e-20 48:-2.5028831e-20 50:-0.0063219145 52:-8.509786e-20 53:-0.0073827486 54:0.029619355 55:-2.0023147e-20 56:-0.026327148 57:-0.011888764 58:-8.6192853e-20 60:-0.044082709 62:-0.005324115 63:-0.00035960501 64:-0.1916732 66:-0.00015436423 68:-0.00015436635 71:-0.0093871588 72:-0.016504657 73:-2.0023147e-20 74:-0.00051396922 75:-2.0023147e-20 76:-0.01006479 77:-1.5017257e-20 79:-0.0068047703 80:0.06177634 82:0.025936043 83:-0.0057915356 84:-0.016852805 85:-0.1345419 87:-0.0050578052 88:-0.0056046168 89:-0.034198105 90:-0.0080565633 91:-0.048157018 93:-2.6123824e-20 95:-0.0012086211 96:-0.007134099 97:-1.6018415e-19 98:-1.0011615e-19 99:0.012354645 100:-4.0046295e-20 101:-0.039861944 102:0.058705937 103:-0.0064781429 104:-0.0057462747 105:0.023485908 106:-0.055881381 107:-3.5040612e-20 108:-0.030700849 109:-0.000890102 110:-0.021207975 111:-1.0121011e-19 113:0.049660344 114:-3.0034514e-20 115:0.030873347 116:0.03506422 117:-0.0030226614 119:-0.0055165957 121:-0.0030226614 122:-0.027970742 123:-0.015928417 124:-0.0066874428 127:-0.069673307 129:-2.0023147e-20 132:-0.017439444 133:-2.5028831e-20 134:-0.0051694973 135:-0.072589271 137:-0.13614006 138:-0.011142001 139:-0.0014023938 140:-0.0023679626 141:-0.069902554 142:-0.0031236887 143:0.11774679 144:-0.0017099519 145:-0.0042273719 146:-1.5017257e-20 147:-0.12639897 148:0.0090500023 149:-0.024405265 150:0.020168969 152:-0.006102208 153:0.055191327 154:-0.030844213 156:-0.0056147273 157:-0.0017724729 158:-0.011434259 159:-0.021485358 160:-0.0056000352 161:0.0023740979 162:0.24897176 163:-0.0062147737 164:-0.00587495 165:-0.022385428 167:-1.5017257e-20 169:-0.0057726465 170:-0.011333552 171:0.097077094 174:-0.0061782617 178:-0.0013514456 179:-1.5017257e-20 182:-0.014359553 183:-0.0047038253 184:0.021124888 185:-0.0090633864 186:0.05380151 187:-0.026760316 188:-1.5017257e-20 189:-0.0025140154 190:0.068490058 192:-0.00509032 193:-0.0057314578 194:-0.010959176 195:-0.0056065354 196:-0.021050407 197:-0.0048789931 198:-2.5028831e-20 199:-1.5017257e-20 200:-0.11987255 201:-0.15840569 202:-0.033622012 204:-0.0076876455 206:-0.020691799 208:-0.0072725499 211:-2.5028831e-20 212:-0.0088011101 213:-0.0044999868 215:-0.025794132 216:-0.018212089 218:-0.0064129476 219:0.10244013 222:-0.011204939 224:-0.0051694973 225:-0.00013578603 226:-0.033933636 228:-2.0023147e-20 229:-1.6018415e-19 230:-1.5017257e-20 231:-0.00018104679 232:-0.0058179074 233:0.00027230068 234:-0.0010973428 235:-0.11283606 236:-0.1208903 238:-0.0013281791 239:-0.0057462747 240:-2.5028831e-20 241:-0.0058179074 242:-1.5017257e-20 244:-1.5017257e-20 246:-1.5017257e-20 247:-0.00064975343 249:-0.040612534 253:0.0058481903 254:-0.0057726465 255:-0.049144108 256:-0.0010611664 257:-0.0036672011 258:-0.014867831 259:-2.6123824e-20 260:-0.034673862 261:-0.00035960999 262:-0.018644845 264:-2.0023147e-20 267:-0.0014708092 268:0.0016024953 270:-0.0072387666 272:-0.0058241007 273:-0.00078505883 274:-0.0069940123 277:-0.0050574266 278:-8.5098687e-20 279:-1.5017257e-20 280:-1.5017257e-20 281:-0.0055693602 282:-0.00035960501 284:-0.0034109983 286:-8.6192853e-20 287:-2.0023561e-20 288:-0.025361486 289:-0.0023617793 290:-1.1122251e-19 291:0.033803232 292:-0.00096529722 293:-0.010533829 295:-0.0058180392 296:-2.0023147e-20 297:0.040228456 298:-0.00048943795 299:-2.0023147e-20 300:-0.0093870489 301:-2.0022734e-20 302:-0.0013513335 303:-0.0066874428 304:-0.007272542 305:-0.0010012917 306:-7.911765e-05 307:-2.5028831e-20 308:-0.013222325 309:-4.0046088e-20 310:0.029972285 311:-0.00092083216 312:-0.02181638 313:-0.0054292949 314:-0.055614088 315:0.02151422 316:-0.00096490671 317:-0.0098023815 318:-2.0023147e-20 319:-0.007983638 320:-0.12612753 321:-0.024252765 322:-0.01074977 324:-0.019609133 325:-0.018551024 326:-0.022079518 327:-0.0067991302 328:-0.01277686 330:-0.0080498122 331:-0.010809972 332:-0.0057462747 333:-0.0050640646 334:-0.0050578052 335:-0.0057494948 337:-1.0121011e-19 338:-1.5017257e-20 339:-0.015381638 341:-0.0026791496 342:-0.0082765948 343:-0.0058179074 344:-0.00031515327 345:-0.0080498122 346:-0.010201205 347:-1.0011615e-19 348:0.017834069 349:-0.043879397 350:-0.0055397972 351:-0.014031191 352:-1.5017257e-20 353:-1.0011512e-19 354:0.022374151 356:-0.017089853 358:-1.6018415e-19 359:-0.0062027141 360:-0.15104418 362:-0.0054033576 363:-1.5017464e-20 364:-2.5028831e-20 365:0.048063792 368:-0.0032518876 369:-2.0023147e-20 370:0.028932806 371:-0.0053989911 373:-1.5017257e-20 374:-2.0023147e-20 376:-0.013897679 377:-0.020475131 378:-0.013766705 380:-0.0058179074 381:-0.0028806247 382:-0.01704064 384:0.06017172 385:0.024780927 386:-0.0021773705 387:-0.0078922873 388:-0.0051544318 389:-0.016289199 390:-0.0069515263 391:-0.014607913 392:-0.00013578415 395:-0.030871725 396:0.026444994 397:-0.011618653 398:-0.00035960999 399:-3.0034514e-20 400:-2.0023147e-20 401:-0.0069397748 402:-0.0059291502 403:-0.0027306059 404:-1.6018415e-19 406:-2.0524502e-19 407:-8.509786e-20 408:-0.0053979759 409:0.091742739 410:-0.077851549 411:0.010022894 412:-2.0023147e-20 414:-0.011372607 415:0.32945639 416:-0.0025140154 417:-0.0049117054 418:-0.0062260474 419:-0.003009446 421:-0.033621188 422:-8.5098687e-20 423:-0.0057726465 425:-2.0023147e-20 426:-0.012058165 427:-2.6123824e-20 428:-0.0096759181 430:-1.5017257e-20 433:-1.5017257e-20 434:-2.0023147e-20 436:-1.5017257e-20 437:-2.5028831e-20 438:-2.0023147e-20 439:-0.0070241774 440:-8.6192853e-20 441:-0.0087075196 442:-0.030325517 443:-0.0092198569 444:-1.0121011e-19 445:-1.5017464e-20 446:-1.7520347e-19 447:-0.0055693602 449:-0.01500436 450:-0.0044999868 451:-0.00018104679 453:0.00081705081 455:0.035855051 457:0.022089452 458:-0.024386769 460:-0.0054074726 461:-0.016218558 462:-0.0096687535 463:-0.00033507159 464:-2.0023147e-20 465:-0.0091209374 466:-0.016031943 467:-0.010655547 469:-0.0010807178 470:-0.0077783815 471:-0.0026791496 472:-1.6628503e-19 473:0.055186585 474:-2.5029658e-20 475:-0.010448688 476:-0.014428187 477:-0.008460179 478:-0.0029967651 480:0.077877782 481:0.098348685 482:-0.05088567 483:-0.03288085 484:-0.014428497 486:-0.02394163 487:0.0066271238 488:-0.0083184876 489:-1.5017257e-20 490:-0.0057726465 491:-1.5017257e-20 492:-0.0047133607 494:-0.015204657 495:-0.0050903806 498:0.050158463 499:-0.0034008049 500:-0.006595823 501:-0.0057726465 503:0.91190851 504:-0.005626292 505:-0.11105218 506:-0.0094798878 507:-0.0043883091 508:-0.017919295 509:-1.6018415e-19 511:-2.0024388e-20 512:0.028443523 513:-0.007613638 514:-2.0023147e-20 516:-2.0023147e-20 517:-0.015473578 518:-0.0091911433 519:-0.0066874428 520:-3.0034514e-20 522:-0.0087721916 524:-0.0027642623 525:0.0036379436 526:-1.4516937e-19 527:-0.060180567 528:-2.6123824e-20 529:-0.0036523791 531:-2.5028831e-20 532:-0.008186698 533:-0.0062084259 534:-0.0093606757 535:-2.1118141e-20 536:-0.071992673 537:-0.020909481 539:0.038290024 540:-0.018675245 541:-3.0034928e-20 542:0.043512471 543:-0.011260753 544:-0.034774609 545:-0.010228747 546:-0.00051396922 547:-2.5028831e-20 548:-0.010053721 549:-0.038426161 551:0.038842943 553:-1.5017257e-20 554:0.0042266259 555:-0.060735315 556:-0.01411334 557:-0.00015436423 558:-0.017425692 559:-0.023261815 561:-0.0058884411 562:-2.0023147e-20 565:-2.5028831e-20 566:-0.011705948 567:-0.011832466 568:-0.0052981777 569:-0.0058693611 570:-0.011406292 572:-0.020515339 574:0.031913858 575:-0.0033098334 576:-0.032141179 577:-2.5028831e-20 578:-0.0040532276 579:-0.0025140154 580:0.050702319 581:-1.5017257e-20 582:-0.044083156 583:-1.5017257e-20 585:-0.0057726465 586:-1.0512142e-19 587:-0.023230517 588:-0.0099446084 589:-0.011731712 591:-0.0022259951 592:-0.004703904 593:-2.5028831e-20 594:-0.004703572 595:-1.5017257e-20 597:0.035460904 598:-0.007802797 599:-0.0058693611 601:-0.00035960501 602:-0.0028239028 604:-0.0064907735 606:-0.00033507159 607:0.017615015 608:-0.0063940585 609:-4.0046088e-20 610:-0.0052190614 611:-0.0056175943 612:-0.0086096246 614:-0.015281523 615:-1.4016203e-19 616:-0.001175629 617:-0.0025140154 618:-0.0056175943 619:-0.0043178075 620:-0.11249566 621:-0.0078515634 622:-0.040849093 624:-0.009068938 626:-0.017425692 627:0.02893273 628:-2.5028831e-20 630:-0.029693626 631:-8.0092176e-20 632:-0.00083650858 633:0.10134026 634:-0.0057651624 635:-0.092748769 636:-0.00033507159 637:-0.0050904769 640:-0.0056516817 641:-1.5017257e-20 642:-0.050173957 643:-0.0064907735 644:-0.00035960501 645:-0.18988857 647:-0.0084105441 648:-0.0056242696 649:-0.01500436 650:-0.0064129476 651:-0.0054243491 652:-0.0021544402 653:-2.5028831e-20 655:-0.0060876999 656:-0.0033520437 657:-0.023423946 658:-0.0058550448 661:-0.075464934 662:-1.762964e-19 663:-0.01241718 664:-1.5017257e-20 665:-0.030678354 666:-1.5017257e-20 668:-0.0010357844 669:-0.0045000748 670:-0.00049538916 671:-0.018779047 672:-0.0074287523 673:-0.0056778369 674:-2.5028831e-20 675:-1.5017257e-20 676:-0.011258945 677:-0.013971733 679:-0.00033506699 680:-0.0027306315 681:-0.073210739 682:-0.00060530164 684:0.0046873884 685:0.08709386 687:0.0064999163 689:-1.5017257e-20 690:-0.0053242492 691:-0.064360857 694:-0.0065641212 695:-8.5098687e-20 697:-0.0093857413 698:-0.0048155175 700:-0.0057726465 701:-0.0047038253 702:-2.5028831e-20 703:-0.0047337213 704:-0.0050578052 705:-2.5028831e-20 706:-0.011632553 707:-0.0058179074 708:0.00010505832 710:-1.5017257e-20 711:-0.0092214718 712:-0.012518852 713:-0.062200788 714:-2.0023147e-20 715:-0.0057462747 716:-0.0077201123 717:0.0062249722 720:-0.00096528389 723:-0.0058179074 724:-0.01173228 725:-0.0033318321 726:0.020359742 727:-0.056078754 728:-0.0052893637 729:-1.5017257e-20 730:-0.00038603091 733:-1.5017257e-20 735:-0.066937417 737:-1.5017464e-20 738:-0.062516674 739:-2.5028831e-20 741:-0.015001889 742:-0.0077353884 743:0.021056488 744:-0.013407727 745:-1.8130229e-19 746:-0.0016860046 747:-0.041060269 748:-0.0013026401 749:-0.0057462747 750:-0.006595823 751:-0.0047823791 752:-0.0098930327 753:-0.0016607872 754:0.0075186812 755:-0.060084097 756:-2.6123824e-20 757:-0.00072109787 758:-0.0057726465 759:-0.011749263 761:0.036038488 762:-2.5028831e-20 763:0.0070235585 764:-0.097364694 765:-0.00015436423 766:-0.024394585 767:-0.009068938 769:-3.5041025e-20 770:-0.0013467591 771:0.0075824615 772:-0.0087230671 774:0.056804609 777:-0.03798607 778:-0.0058880872 779:-0.00035960501 780:-0.0057462747 781:-2.5028831e-20 782:-0.013929348 783:-0.0044677886 784:-2.0023561e-20 785:-0.0064687245 786:-0.0082505634 787:-0.00035960501 788:-0.0040022638 789:-2.0023147e-20 790:-0.005557863 791:-0.0065949741 793:0.13194899 794:-0.13349953 795:-0.0016860277 796:-0.00070122065 797:-0.17431085 798:-8.5099514e-20 799:-0.0052874936 800:0.039163332 801:-2.5028831e-20 802:0.03549803 803:-0.0071246047 804:-0.026812712 805:-0.14121795 806:-0.0050949487 807:-0.0076697799 808:-0.012171626 809:-0.0095594823 810:-0.0062444336 811:-0.039539814 812:-0.0049976581 813:-0.039849546 814:-1.2514498e-19 815:-0.025896132 816:-0.015108286 818:-0.037548911 819:-0.0064907735 820:-0.00070119381 821:0.0064383959 822:-0.0022626338 823:0.027320728 824:0.0018508524 825:-0.0056716688 826:-0.013794526 828:-0.0074199848 829:-1.5017257e-20 830:-0.0025140154 831:-0.00070120959 833:-0.0064907735 834:-0.00018104679 835:-0.0050578052 836:-0.23662819 837:-1.5017257e-20 838:-0.030798923 839:-0.0056175943 840:0.00056983257 841:-0.0093195392 843:-0.0024066083 844:-0.0083008949 845:0.022471793 846:-0.0062232343 847:-0.028969629 848:-0.00064975343 849:-1.0011512e-19 850:-0.0095560495 851:0.097657003 852:-0.0095458059 853:0.13189279 854:-0.010149596 855:-8.6192853e-20 856:-0.024563666 858:-0.034802418 859:-1.5017464e-20 860:-1.5017464e-20 861:-0.00029015238 862:-0.094367504 863:-0.00035960501 864:-0.0072776154 865:-0.018539593 866:-0.0068817674 867:-0.031602606 869:-0.009621826 870:-0.0060115922 871:-0.00015436423 873:-0.0050196573 874:-0.030864449 875:0.055025045 876:-2.0023147e-20 877:0.0054681646 878:-0.01531486 879:-0.13864487 880:-0.05263919 881:-0.0010357844 882:-0.0037381491 884:-0.0061688214 885:-0.003250086 886:-0.0021773705 887:-0.003702058 888:-0.0030457592 891:-0.0061947061 892:-2.0023147e-20 893:-0.0052875075 894:-0.0013953986 895:-2.0023147e-20 896:-1.5017257e-20 897:-0.011489211 898:-1.5017464e-20 902:-0.0035152398 903:-0.0058179074 905:0.02759853 906:-0.0070329811 907:-0.053797234 908:-0.00038603091 911:-0.0036881771 913:-0.00013578603 914:-2.0023147e-20 916:-0.0051694973 917:-8.6192853e-20 918:-0.089094661 919:-0.0057915356 920:-0.00049538916 921:-0.0061366577 922:-8.509786e-20 924:-0.026024045 925:-1.5017257e-20 926:-0.0083000856 927:-0.00015436635 928:-0.0063909562 929:0.0052799908 930:-0.0057726465 931:-1.5017257e-20 933:-0.01053808 934:-0.059948899 935:-1.5017257e-20 936:-0.045905527 937:-0.0074287523 938:-8.0092176e-20 939:-0.00031553052 940:-0.012302628 941:-0.0057199015 942:-0.0047419006 944:-1.5017257e-20 945:-1.5017257e-20 946:-0.019756544 947:-0.0042017284 949:-0.0048584226 950:-0.27074683 951:-0.0064727901 952:-0.0059291502 953:-0.00087437307 954:-0.0082330592 956:-0.013019713 957:-0.0079224929 960:-0.0058063474 963:-2.0023147e-20 964:0.012681532 965:0.0086315917 966:-0.00089106488 967:-0.014785792 968:-0.005406104 969:-2.0023147e-20 971:-0.012545948 972:-1.8630859e-19 973:-0.016425222 974:-0.0028399387 975:0.084370375 977:-0.0057495176 978:-0.0053898012 979:-0.0017456725 980:-0.0032321769 982:-0.013182404 984:-0.0046821358 985:0.025154565 988:-2.0023147e-20 989:-0.0092706988 990:-1.5017257e-20 992:-0.036951229 994:-0.0054860413 995:-0.032044727 997:0.045991361 999:-0.011439749 1000:-0.059665043 1004:-0.0087230671 1005:-0.017945241 1006:-0.03805862 1008:-0.0050640646 1009:-0.029375987 1010:-0.006595823 1011:-0.00013578603 1012:0.27834392 1013:-0.004193271 1014:-0.0089689 1015:-0.0069194571 1017:-0.0064854971 1019:-0.0058491728 1021:-2.0023147e-20 1022:-0.0057272664 1023:-0.0080636097 1025:-0.0069806813 1026:0.040346637 1027:-0.0098595712 1030:-0.00486281 1032:0.17445563 1033:-8.5098687e-20 1034:0.050641526 1035:-0.00035960999 1036:0.009298671 1037:0.041506857 1038:-0.033625066 1039:-0.0080498122 1040:-1.5017464e-20 1041:-2.5028831e-20 1042:-0.00035960501 1043:-0.0058179074 1044:-0.015422313 1046:0.042852886 1047:-0.0054860413 1048:-0.0032553249 1049:-2.0023147e-20 1050:-0.0012350671 1051:0.0041580922 1052:-0.011010635 1053:-0.0012071121 1054:-0.01933646 1055:-0.013711657 1056:-0.0083479322 1057:-0.024159485 1058:-0.0091209374 1060:-0.0050578052 1062:-0.0025140154 1063:-0.0056051263 1065:0.0048459559 1066:-1.0121114e-19 1069:-1.5017257e-20 1070:-0.041677676 1071:-0.0022259003 1073:-0.011833077 1076:-2.5028831e-20 1078:-0.0017715221 1079:-0.039002907 1080:-0.010201178 1081:-0.0028655964 1082:-3.0034514e-20 1083:-1.5017257e-20 1085:-0.0052058855 1086:-0.016736116 1087:-0.10323408 1088:0.0060034166 1090:-0.00049538916 1091:-1.5017464e-20 1092:-0.0049441978 1093:-0.0054242825 1094:0.019888306 1095:-0.00181049 1097:-0.057161119 1098:-0.070315242 1099:0.01695024 1100:-0.0050578052 1101:0.011812637 1103:-0.0017117307 1104:-2.5028831e-20 1105:-0.0052160705 1107:-0.0099458834 1108:-0.28334266 1109:-4.0046295e-20 1110:-0.0092593646 1112:-2.5028831e-20 1114:-0.0053385971 1115:0.04484136 1117:-0.0057977289 1118:-0.00015436423 1120:-0.11564611 1123:-0.032756601 1124:-0.0083184876 1125:0.027285095 1126:-0.23360723 1127:-0.021175869 1128:0.021350766 1130:-1.6018415e-19 1131:-1.5017257e-20 1132:-0.0079437429 1133:-0.028392471 1134:-0.012264886 1135:-3.5041025e-20 1136:-0.0090694828 1139:-0.01147503 1141:-1.5017257e-20 1143:0.046217669 1146:-0.0024585444 1147:0.016231311 1148:-0.00063118205 1149:-0.071764812 1150:-0.0056000352 1154:-1.1012835e-19 1155:-0.0097283432 1156:-2.5028831e-20 1157:-2.5028831e-20 1158:0.0036667332 1159:-0.055492263 1160:-0.00051396922 1161:-1.9023003e-19 1162:-0.00046951752 1164:0.03495479 1166:-0.0097680483 1170:-0.0046198536 1171:-0.0057462747 1173:-8.0092176e-20 1174:-2.5028831e-20 1175:-0.0057726465 1177:0.0083357049 1178:-0.0049849958 1179:-8.0092176e-20 1181:-0.0066194488 1183:-0.017824637 1185:-1.5017257e-20 1186:-1.5017464e-20 1187:-0.013794526 1188:0.031574011 1191:-0.0018042213 1192:-0.0085431626 1193:-0.013119904 1195:-2.0023147e-20 1196:0.060592208 1197:-8.6192853e-20 1201:-0.01309445 1202:-0.0011483205 1203:-2.0023147e-20 1205:-0.014714386 1206:-0.020770881 1208:-0.0090632271 1209:-0.0050763488 1210:-8.509786e-20 1211:-1.5017464e-20 1212:-0.054242436 1213:-0.012939606 1214:-0.024371253 1216:-1.5017257e-20 1217:-0.00095483533 1218:-0.033367615 1219:-0.0013026847 1220:-0.013128483 1221:-0.010713095 1222:-2.0023147e-20 1223:-0.010561553 1224:-0.00090963847 1225:-0.025408968 1226:-0.00096491998 1227:-0.024857828 1229:-0.057411481 1230:-0.034110513 1231:-0.10647549 1232:-0.012390358 1233:-0.0092118224 1234:-1.701982e-19 1235:-2.0023147e-20 1236:-0.035897318 1237:-0.0057462747 1238:-0.016795285 1239:-2.0023147e-20 1240:-0.00015436635 1241:-0.013234893 1243:-0.00035960501 1244:-0.0050578052 1245:-0.01496533 1246:0.0010115948 1247:-0.00035960501 1248:-0.00049538916 1249:-1.5017257e-20 1250:-0.0056527797 1251:-0.00033507159 1252:-1.5017257e-20 1253:-0.0016220418 1254:-0.010817189 1255:-1.5017464e-20 1256:0.061555337 1257:-0.0056778621 1258:-0.021312481 1259:-2.5028831e-20 1260:-2.5028831e-20 1261:-0.0030457592 1263:-0.18851358 1264:-0.0022690382 1265:-0.028969629 1267:-0.0025140154 1268:-8.509786e-20 1269:-0.016844332 1270:-0.093016066 1271:-0.0020000737 1276:-2.5028831e-20 1277:-0.008186698 1278:-1.5017257e-20 1279:-8.509786e-20 1281:-0.0053602378 1282:-0.003232172 1284:-0.34231052 1285:0.11382765 1286:-0.021519659 1287:-1.5017257e-20 1289:-0.013871399 1290:-0.00015436423 1291:-0.0046964223 1292:0.040516786 1293:-0.028928358 1296:-0.072378717 1297:-0.008815283 1298:-0.026261589 1300:-1.5017257e-20 1301:-1.1012752e-19 1302:-0.015094955 1303:-1.5017257e-20 1304:-0.005605178 1305:0.0083795805 1306:0.01404277 1307:-0.00033507159 1308:-2.5028831e-20 1309:-0.0080384752 1310:-2.5028831e-20 1311:-0.00049539597 1314:-0.0071407822 1315:-1.5017257e-20 1316:-2.5028831e-20 1317:-0.045332633 1318:-0.00018104679 1319:-1.5017464e-20 1320:-0.0094834371 1321:-0.005324115 1322:-1.5017257e-20 1323:-8.509786e-20 1324:-0.00013578415 1325:-0.0024296874 1327:-1.0011512e-19 1330:-0.0057462747 1331:-0.0049441978 1333:-0.0064907735 1335:-0.051396191 1337:-0.031809442 1339:-0.000785048 1342:-0.013061767 1343:0.023643607 1344:0.0025201163 1345:-1.5017257e-20 1346:0.01348374 1347:-1.4517516e-19 1348:-0.0043061469 1349:-0.0032721297 1350:-0.0316053 1351:-0.0028005932 1352:-0.03669576 1354:-1.6018415e-19 1355:-0.027137814 1356:-2.0023147e-20 1357:-0.010563074 1358:-0.013234867 1359:-1.6519045e-19 1360:0.00078683154 1361:-0.0061760186 1363:-0.0063013025 1364:-0.087146737 1365:-0.038983401 1367:-1.5017257e-20 1368:-0.0008814201 1370:-0.00049538916 1371:-0.05322092 1372:-0.0023596836 1373:-0.0090988381 1374:-0.0066874428 1376:-0.00013578415 1377:-0.0010286807 1378:-0.0086161438 1379:-4.0046295e-20 1380:-0.0051694973 1381:-0.13850014 1382:-0.00069575821 1383:-1.5017257e-20 1384:-1.5017257e-20 1385:0.0044004279 1386:-0.039749827 1387:-0.0092232963 1388:-0.0056264079 1389:-0.024900509 1390:-1.5017257e-20 1391:-0.015791463 1392:0.023973772 1393:-0.012817142 1394:-0.0012318271 1395:-0.00031515761 1396:0.0091247084 1397:-0.10198015 1398:-0.0074098338 1400:-0.013462923 1403:-0.0043572509 1404:-0.0057462747 1405:-0.011115693 1406:-1.0950107e-19 1407:0.033605777 1412:-0.00049538916 1413:-0.0058179074 1414:-0.0044999868 1415:-0.0013281791 1416:-0.0011091996 1417:-0.00096575078 1418:0.031020867 1419:-1.5017257e-20 1421:-0.031586889 1422:-2.0023147e-20 1424:0.038102958 1425:0.025655407 1426:-1.5017257e-20 1427:-0.044781502 1429:-0.013234867 1430:0.041081756 1432:-1.5017257e-20 1433:-0.062769979 1434:-0.024003677 1435:-0.0061179311 1436:-0.0083008949 1437:-0.005049252 1438:-2.0023147e-20 1439:-8.509786e-20 1440:-0.011180879 1441:-0.0017179243 1442:-0.0053063817 1443:-0.00089463167 1444:-2.4637802e-19 1445:-0.061657645 1446:-0.0071407822 1447:-0.017921083 1448:-0.0091746058 1449:-0.0071509774 1450:-0.0051694973 1451:-0.024016939 1452:-0.0094800852 1453:-8.509786e-20 1454:-0.118037 1455:-0.0057915356 1456:-0.10007226 1457:-0.0022058666 1459:0.027414842 1460:0.016415564 1461:-0.0021544402 1462:-2.0023147e-20 1463:0.01019009 1464:-0.0057036476 1465:-0.028348779 1466:-0.0043812688 1467:-0.018060647 1468:0.012650639 1469:-0.025194665 1470:-0.017232973 1471:0.045809381 1472:-0.0049441978 1473:-3.0034928e-20 1474:-0.00013578415 1475:-1.5017257e-20 1476:0.061170455 1477:-0.00033506699 1478:0.0059242956 1479:-0.014666552 1480:-0.037986033 1481:0.014960456 1482:-0.00051396922 1483:-0.00035962978 1484:0.069407277 1485:-0.049369756 1487:-0.0035803842 1488:0.0030691454 1489:-0.013350723 1490:-0.0033149878 1491:-0.042875532 1492:-0.0084355911 1493:-1.2123397e-19 1494:-0.0019516587 1495:-0.0074647805 1496:-0.10952581 1497:-0.00013578603 1498:-0.0046286671 1499:-0.0013282005 1500:-2.0023147e-20 1501:-0.020157272 1502:-0.0076917452 1503:-0.012452738 1504:-1.5017257e-20 1505:-0.0085148159 1506:-1.0121011e-19 1507:-0.0075869048 1508:-0.0095758736 1510:-0.0189432 1511:0.0018508524 1512:-0.0064907735 1513:-0.0030227117 1514:-0.0054801633 1515:-2.5028831e-20 1516:-1.6018415e-19 1517:-0.0025140154 1518:0.014173813 1520:-0.0014797164 1521:-0.009309222 1522:-1.5017257e-20 1526:-0.0023678134 1527:0.024272433 1528:-0.00035960501 1529:-0.010525004 1530:-0.0058517428 1532:-1.5017257e-20 1533:-2.0023147e-20 1535:-0.026547175 1536:-0.008336952 1537:-0.052084431 1538:0.038559839 1539:-2.5028831e-20 1540:0.0025705099 1541:-1.6018415e-19 1542:-1.5017257e-20 1543:-0.0065960195 1544:-0.0076456149 1545:-1.5017257e-20 1546:-0.012344617 1547:-0.0083657447 1548:0.018867798 1550:-0.0075396369 1551:-0.0041276733 1552:-2.5028831e-20 1553:-0.0054114065 1554:-2.5028831e-20 1556:-0.0059229569 1557:-0.00035960501 1558:-0.0036921019 1559:-0.004201822 1560:-0.0064909612 1561:-0.00048943795 1562:-2.0022734e-20 1563:-1.802075e-19 1564:-0.026395194 1565:0.033694267 1566:-0.3969762 1567:-0.0076518268 1569:-4.0046295e-20 1570:-1.5017257e-20 1571:-0.0020467977 1572:-8.5098687e-20 1573:0.055548262 1574:-0.0020729217 1575:-1.162287e-19 1576:0.018755745 1577:-0.0064907735 1578:-0.0056674713 1581:-0.057143498 1582:-1.6018415e-19 1583:0.0062249722 1584:-4.4435729e-20 1585:-0.23551622 1586:-0.0082255192 1587:-1.5017257e-20 1588:-0.0086145448 1589:-0.00015436423 1590:-1.5017464e-20 1592:-0.0054713544 1593:-0.00049538916 1594:-0.004436424 1597:-1.5017257e-20 1598:0.021948807 1600:-2.0023147e-20 1601:-0.0057462747 1603:-0.00893558 1604:-0.0061366735 1605:-0.0085496809 1606:-2.5028831e-20 1607:-0.0059032231 1608:0.0052674646 1609:-0.0013656399 1612:-1.6127914e-19 1613:0.019190215 1614:-0.025982015 1616:-8.0092176e-20 1618:-2.5028831e-20 1619:-0.00013578415 1622:-2.5028831e-20 1623:-0.0085895266 1624:-0.057188381 1625:-1.5017464e-20 1626:-0.0059527759 1629:-0.013716531 1630:0.10570668 1631:0.13276269 1634:-1.5017257e-20 1636:-0.11169355 1637:-1.5017257e-20 1638:-0.0051694973 1639:-0.00049538916 1640:-0.00035960999 1644:-0.00013578603 1645:-0.01007127 1646:-0.0052915397 1647:-0.0090694828 1648:-0.0060582701 1650:-0.026637914 1651:-1.5017257e-20 1652:-0.15642379 1653:-0.0055693602 1655:-0.0013350251 1656:0.029696705 1657:-0.0049072723 1658:-0.01194397 1659:-0.0058209146 1660:-0.0074579241 1661:-0.10261495 1662:-1.5017464e-20 1664:-0.0064393193 1665:-2.0023147e-20 1666:-0.0019197622 1668:-1.0621683e-19 1669:-0.024130873 1670:-0.0051958701 1671:-1.0621641e-19 1672:-0.0056674667 1674:-0.0056324117 1675:-8.509786e-20 1676:0.34636399 1677:0.018856443 1678:-0.013286931 1679:-0.0090833204 1680:-0.023048382 1681:-0.0018661412 1682:-0.012116787 1683:-0.0057462747 1686:0.070242211 1687:-2.0023147e-20 1688:-0.058486972 1689:-0.00035960501 1690:-0.0029258875 1691:-0.0054860413 1694:0.028443728 1695:-2.6123824e-20 1696:-0.0071078278 1697:-0.00081054243 1698:-0.0040216804 1699:0.0625811 1700:-1.5017257e-20 1701:-0.0057726465 1702:-0.0002901484 1703:-0.0086501306 1704:-0.0069768117 1705:-0.039658152 1707:-0.0052874936 1708:0.058272276 1709:-0.021595238 1710:-0.009199894 1711:-0.14044267 1712:-0.00049539597 1713:-3.0034928e-20 1716:-0.014797678 1717:-2.0023147e-20 1720:-2.0023147e-20 1721:-0.036502991 1723:-8.509786e-20 1725:-0.0060865092 1726:-0.0088811563 1727:-0.0058179074 1728:0.0048176488 1729:0.02326015 1730:-0.010688701 1731:0.0056998315 1732:-0.0053979759 1733:0.050601963 1735:-0.0074287523 1736:-0.0087553831 1737:0.067843139 1738:-2.6123824e-20 1739:-0.00074563595 1740:-1.5017464e-20 1741:0.033716008 1744:0.019888306 1746:-0.00057450571 1749:-1.6519045e-19 1750:0.018654088 1751:-0.00013578603 1752:-1.5017257e-20 1753:-8.6192853e-20 1754:-0.010183439 1755:-0.0058938386 1756:-0.011410928 1757:-1.0512142e-19 1758:-0.014480303 1759:-2.5028831e-20 1760:-0.030840591 1761:-1.5017464e-20 1764:-0.056650769 1765:0.17440195 1766:0.0096159587 1767:-0.0043398254 1768:-0.0056695272 1769:-0.0013263995 1770:-0.05322092 1771:-0.0018466047 1772:-3.0034514e-20 1773:-2.6123824e-20 1774:-0.0050578052 1775:-0.012340695 1777:-0.008583134 1778:-2.0023147e-20 1780:-0.0052893637 1781:-1.0449518e-19 1782:-0.0052190614 1783:-0.0047442308 1784:-0.0060582701 1785:-0.0054949867 1786:-2.5028831e-20 1787:-0.0077672387 1789:-0.073328212 1790:0.073657237 1791:0.023899974 1792:-0.012264786 1793:-0.010268339 1794:-0.01712184 1795:-0.39624277 1796:-0.022355935 1797:-0.11340956 1798:-0.0065760892 1799:-0.013048529 1800:-0.001678917 1801:7.6181577e-20 1803:-1.5017464e-20 1804:-0.081462227 1805:-0.017081255 1806:-0.017037988 1807:-0.0060011507 1808:-0.035537764 1811:-0.0058179074 1812:-0.0026107728 1813:-2.0023147e-20 1814:-2.0023147e-20 1815:-2.5028831e-20 1816:-0.0077353884 1817:-2.0023147e-20 1818:-1.5017257e-20 1819:-0.0010109008 1820:-0.027631849 1822:0.0079002474 1823:-0.025454465 1825:-0.0093046809 1826:-0.014059233 1827:-0.0065306593 1828:0.018422496 1829:-0.040839594 1830:-0.01499918 1831:-0.14136359 1833:-0.0010872405 1834:-0.009309222 1836:0.020509437 1837:-0.0057726465 1838:-0.039562296 1839:-0.022361195 1840:-0.0056527797 1842:-0.003019918 1844:-0.0032721297 1845:-0.035412118 1846:-1.5017257e-20 1847:-0.0010286807 1849:-0.0052124229 1851:-0.0067009986 1852:-0.010733655 1853:-0.00038603091 1854:-0.0026318966 1856:-0.0026319178 1857:-0.0043161567 1858:-1.0512142e-19 1859:-7.5086286e-20 1860:-0.0058179074 1861:-0.0012071121 1862:0.014994955 1863:-0.0057726465 1864:-0.00087431644 1865:0.0029231103 1866:-1.5017257e-20 1869:-0.0059568477 1870:-0.015199843 1872:-0.029476857 1873:-0.01839265 1874:-2.5028831e-20 1875:-0.37406883 1876:-1.5017464e-20 1878:-0.010456996 1879:-2.5028831e-20 1880:-0.026664076 1881:-0.043298144 1882:-1.5017464e-20 1883:-1.5017464e-20 1884:-0.045695532 1885:0.0056550321 1886:-0.0058693611 1887:-0.00035960501 1888:0.049018376 1889:-0.0057915356 1890:-0.011686222 1893:0.049892612 1894:-0.26222062 1895:0.041096039 1896:0.0030160528 1897:-0.0058179074 1899:0.024419976 1900:-0.00035960501 1901:-0.020168502 1902:-0.01803229 1903:-0.00096490671 1904:-1.5017464e-20 1906:-1.5017464e-20 1907:-0.0024436805 1909:0.066617228 1910:-0.00035960501 1911:-0.0065959487 1912:-0.024791835 1913:0.062426891 1914:-0.0058179074 1915:-0.0086145448 1916:-0.015152776 1917:-1.5017257e-20 1918:-2.5028831e-20 1920:-2.5028831e-20 1921:-0.010010142 1923:-0.019000994 1924:-8.509786e-20 1925:-0.00049538916 1926:-0.0033865273 1927:-0.0058241007 1928:-2.113368e-19 1929:-0.15528902 1931:-0.013794355 1932:-0.0071528475 1933:-2.9408894e-20 1934:-0.035022661 1935:-0.00090001256 1936:-0.0018466202 1938:-0.00074563595 1940:-0.0058763111 1941:-1.5017257e-20 1942:0.018443048 1944:-1.5017464e-20 1945:-2.0023147e-20 1946:-0.011665054 1948:-0.0004894312 1949:-0.033971108 1950:0.0081040142 1951:-0.035595547 1952:-0.013051867 1953:-0.024828866 1954:-0.0078008263 1955:-1.1012835e-19 1956:-0.0022228765 1957:-0.034225091 1958:-0.046056844 1959:-8.6192853e-20 1960:-0.0053050769 1961:0.07114733 1962:0.073161051 1963:-0.025372839 1964:-0.17120229 1966:-0.028864043 1967:-0.0010167287 1969:-0.0014595221 1970:0.0037784255 1971:-8.6193771e-20 1973:0.0038959072 1976:-2.0023147e-20 1977:0.14376247 1978:-0.025408968 1979:0.030175166 1981:-0.030305898 1982:-0.0030227117 1984:0.13328107 1985:-0.020996198 1986:-1.5017257e-20 1987:-0.0051694973 1988:-0.055436313 1990:-1.5017257e-20 1991:-0.0042754547 1992:-0.20215528 1993:-0.00088057871 1995:-1.5017464e-20 1996:0.023702037 1997:-1.5017257e-20 1998:-0.0043406016 1999:0.034136418 2000:-1.1622861e-19 2001:-0.0081889359 2002:-0.0036350747 2003:-4.5051978e-20 2004:-0.0025592779 2005:-0.015767619 2007:-0.0058965851 2010:-1.5017464e-20 2011:-0.0076983087 2012:-0.0052874936 2013:-0.0082726981 2014:-0.027260367 2016:-0.065052196 2017:-4.0046295e-20 2018:-0.0054374696 2019:-0.0047038253 2020:-0.032839511 2021:0.04640279 2024:-0.0078922873 2025:-0.0047038253 2027:-0.084317163 2028:-0.013771188 2029:0.052656472 2030:-0.02373811 2031:-0.0030227117 2034:-0.0057726465 2036:-2.5028831e-20 2037:-1.762964e-19 2038:-1.5017257e-20 2039:-0.00893558 2040:-2.0023147e-20 2041:-0.0019928163 2044:-6.5075126e-20 2045:-1.145085e-19 2046:0.0069393553 2047:-0.061860919 2048:-0.019746797 2049:-0.12448224 2052:-0.00051397632 2053:-0.00047947667 2054:-2.5028831e-20 2055:-0.00047245726 2056:-1.5017464e-20 2058:0.0024363955 2060:0.012762118 2061:-0.0070879525 2063:0.04473646 2064:-0.011572411 2065:-0.070122689 2068:-0.063006133 2070:-0.015651634 2071:0.014887731 2072:-0.0057726465 2075:-0.0042976667 2076:-0.0033149878 2077:-0.0048275394 2078:0.017942084 2080:-1.5017464e-20 2081:-0.0059291502 2082:-2.0023147e-20 2084:-0.013198969 2085:-1.5017257e-20 2086:-0.0064909612 2087:-0.0060582701 2089:-8.509786e-20 2091:0.028142834 2092:-1.3453123e-19 2093:0.012707328 2094:-0.0070462842 2095:-1.5017464e-20 2096:-0.003567308 2097:-0.0026338871 2098:-0.011860684 2099:-0.031205706 2100:-0.0259022 2101:-0.0051629161 2102:0.044307329 2103:-0.0064129476 2104:-0.0057915356 2105:-0.00035960501 2106:-8.0092176e-20 2107:-0.0056674667 2108:-0.002223867 2109:-0.0094085 2110:0.06555891 2112:-0.0053773415 2113:-0.02812003 2114:-0.013919854 2115:-0.0051694973 2117:-0.00035960999 2119:-0.010375516 2121:-2.0024388e-20 2122:-0.0020312844 2125:-8.6192853e-20 2127:-0.018015964 2128:0.060815331 2129:-0.0066874428 2130:-1.5017464e-20 2131:-0.0063669696 2133:-2.0899326e-19 2134:-0.03321648 2136:-0.017242029 2137:-0.023327895 2138:0.069040813 2139:-0.00015436423 2140:-2.0023147e-20 2141:-8.509786e-20 2143:-0.007945613 2144:-0.0057977289 2145:-0.0053980877 2146:-0.035017621 2147:-0.051964197 2148:-0.0064907735 2149:0.040684413 2150:-0.0010611664 2151:-0.00013578415 2152:-8.509786e-20 2153:-0.0076634218 2154:-0.0022029111 2155:-0.06237768 2156:-0.0043216888 2157:-0.011193614 2158:-0.025470424 2159:-0.0063746697 2160:-0.023478165 2161:-1.5017257e-20 2162:-0.007945613 2163:-2.0022734e-20 2164:-0.13697858 2165:-2.0023147e-20 2166:-0.044367708 2167:0.014370785 2168:-2.0023147e-20 2169:-0.014554083 2170:-0.0015502204 2172:-2.0023147e-20 2173:-0.00035960501 2174:-0.0023084588 2175:-0.0063413139 2176:-0.0064907735 2177:-0.0040022638 2178:0.03139668 2179:-0.043394476 2183:-0.00049538916 2184:-4.0046088e-20 2185:-0.0052188919 2186:-0.00049538916 2187:-0.00018104679 2188:-0.00092079415 2190:-0.0092346212 2191:-0.019392926 2192:-0.011618653 2194:-1.5017257e-20 2195:-0.0056064171 2196:-1.5017257e-20 2197:-0.024340943 2198:-0.013859348 2199:-0.0043572988 2200:0.027578011 2201:-2.5028831e-20 2202:-0.01485382 2203:-1.5017257e-20 2206:-2.5028831e-20 2207:-0.00035960999 2208:-8.509786e-20 2209:-0.066170737 2210:-0.015552252 2213:-0.0010286807 2214:-1.5017257e-20 2216:-1.5017464e-20 2218:-0.00049538916 2219:-0.014674118 2221:-1.5017257e-20 2222:-2.0023147e-20 2223:-0.039627571 2224:-0.014331367 2225:-0.017851504 2226:-0.011372607 2227:-0.0051864856 2228:-0.0075339279 2229:0.027430445 2230:-0.00049539597 2231:-0.012160732 2232:-0.0072387666 2233:0.031307831 2234:-8.509786e-20 2235:-0.020485744 2236:0.060564175 2237:-0.0019549888 2239:-0.013919854 2240:-0.00077957043 2241:-2.0023147e-20 2242:-0.015820311 2243:-0.00049538916 2244:-0.026048107 2246:-0.0093178144 2247:-1.5017257e-20 2248:-1.5017257e-20 2249:-0.012176947 2250:-0.0046051489 2251:-0.019221205 2252:0.029674614 2253:-0.00035960501 2254:-0.00038603623 2255:-0.0040532276 2256:-0.028034948 2257:-2.5028831e-20 2258:-0.018935373 2260:-2.5028831e-20 2261:0.061824765 2262:-0.010942163 2263:-0.0055209184 2264:-0.012832301 2265:-0.00049538916 2266:-2.0023147e-20 2270:-0.0013509376 2271:-0.013203507 2272:-0.0052874936 2273:-0.019311691 2274:-0.0030227166 2276:-0.020993328 2278:-0.0054050945 2280:-0.0049288101 2281:-1.6628503e-19 2282:-0.0090423375 2283:-0.022900239 2284:-0.0058180392 2287:-1.5017257e-20 2288:-0.0056527797 2289:-0.0062535242 2290:0.040526859 2291:-0.072710305 2292:-0.013234867 2294:-4.0046088e-20 2296:0.074678607 2297:0.026000399 2298:-2.5028831e-20 2301:-0.0066874428 2302:-0.00051396922 2304:-0.017024316 2307:-3.0034928e-20 2308:-0.00035960501 2309:-0.0061632479 2310:-0.049604401 2311:-0.0062290877 2312:-0.032775488 2313:-0.0038668348 2314:-0.015473578 2315:-0.0062679262 2316:-0.034806032 2317:-0.23281553 2319:-0.015105228 2320:-0.0064907735 2321:-0.0056051263 2322:0.006071283 2323:-0.0086145448 2325:-0.0040532276 2327:-0.0076518217 2328:-0.0057713557 2330:0.028544085 2331:-0.016641689 2332:-0.01538163 2333:-0.0057462747 2334:-2.0023147e-20 2335:-1.6018415e-19 2336:-0.0050903806 2337:-0.0052788099 2338:-0.0058475393 2340:-0.011914711 2342:0.0025201163 2343:-1.5017257e-20 2344:-0.00057450571 2346:-0.0030331621 2348:-0.0059095272 2349:-0.0057462747 2351:-4.0046088e-20 2352:-0.0066874428 2353:-0.1285831 2354:0.021912521 2355:-2.5028831e-20 2357:0.016185943 2358:-0.067695677 2359:0.017002048 2360:-0.001678917 2361:-0.011258842 2362:-0.00893558 2363:-0.0056674667 2364:-0.051976204 2366:0.016231311 2367:-0.00087431644 2368:0.085066758 2369:-0.042735204 2370:-8.5098687e-20 2371:0.02484332 2372:-0.0038667549 2373:-0.0058179074 2375:0.010906613 2376:-8.6192853e-20 2377:-0.014745606 2378:-0.01117056 2379:-2.0023147e-20 2380:0.027970538 2381:-0.0049441978 2382:-0.0020462489 2383:-0.009990518 2384:-1.8630859e-19 2385:0.099493317 2386:-0.0071407822 2387:-2.5028831e-20 2388:-8.5098687e-20 2389:-0.021634266 2390:-0.0025390203 2391:-0.0051629161 2393:-0.025577217 2395:-0.00038603091 2396:-8.0092383e-20 2397:0.018330345 2398:-0.0058693611 2399:-0.014136419 2400:-0.005107508 2401:-0.00051396922 2402:-0.0010427887 2403:-1.5017257e-20 2404:-3.5040612e-20 2406:0.039415915 2407:0.061824765 2408:0.0067740078 2409:-1.5017464e-20 2410:-0.006482291 2411:-0.0031447425 2412:-0.028768986 2415:-0.038747728 2416:-0.00089463167 2417:-0.0094964597 2418:-0.0071743494 2420:0.0027915945 2421:-0.0064907735 2422:-0.0057726465 2423:-0.046313833 2424:-0.044082709 2425:-0.024905086 2428:0.046621077 2430:-0.021393131 2432:0.23124343 2433:-2.5028831e-20 2435:-0.0059291502 2436:-0.002223867 2437:-0.0058179074 2438:-0.014419409 2441:-0.013610534 2442:-0.028969629 2443:-0.0058179074 2444:-0.0040533068 2446:0.0041604708 2447:-0.013901944 2448:-0.0036881771 2449:-0.0057726465 2450:-0.00057451363 2451:-1.5017257e-20 2452:-0.011194617 2455:-0.043625597 2456:-0.0066874428 2457:-0.0042968104 2459:-1.0621641e-19 2460:-2.5028831e-20 2461:-0.0057597044 2462:-0.0036920763 2464:-1.5018291e-20 2465:-2.5028831e-20 2466:-0.00089463167 2467:-1.5017257e-20 2468:-0.0051958878 2469:-2.0023147e-20 2470:-0.0017877799 2471:-2.0023147e-20 2472:-0.0040107272 2473:0.015237559 2474:0.02893273 2475:0.030917263 2476:-0.0047121784 2477:-0.012328344 2478:-1.1012752e-19 2479:-0.031195855 2480:-0.020689311 2482:-0.00043872159 2483:-0.0058179074 2485:-0.022715043 2486:-0.00035960501 2487:-0.066755675 2488:-0.057943482 2489:-0.00035960501 2490:0.056596924 2492:-0.00015436635 2493:0.0093892394 2494:-2.5028831e-20 2496:-0.028969629 2497:0.020303531 2498:-0.004602497 2499:-0.0071413293 2502:-0.0010198718 2504:-0.00015436423 2505:-0.0056716688 2506:-0.0070329811 2507:-0.046813212 2508:-0.0093870517 2510:-0.0038785844 2511:-0.1001046 2513:-0.014658019 2514:-0.00063069246 2515:-0.048330266 2516:-0.0060508531 2517:-0.0016593644 2518:-0.0026791496 2520:-0.046060957 2521:-0.036951229 2522:-0.061909046 2523:-0.00095483533 2525:-0.017248999 2526:-0.0055693602 2527:0.025196027 2528:0.007407092 2529:0.027079023 2531:-0.080016837 2532:-1.5017257e-20 2535:-1.6628503e-19 2536:-0.0052893637 2537:0.012971701 2538:-0.025194665 2540:-0.073399819 2541:-0.015196767 2543:-0.004468943 2544:-0.0050640646 2545:-1.6628503e-19 2546:-0.0046286671 2547:-0.011402321 2548:-1.5017257e-20 2549:-1.5017257e-20 2550:-1.5017257e-20 2552:-0.005068575 2553:0.017753625 2554:-0.022523535 2555:-0.01518847 2558:-0.0081028324 2559:-0.0030227117 2560:-0.0064907735 2561:-0.0064992341 2562:-0.043873686 2563:-0.014785789 2564:-0.0044828271 2567:-0.020177238 2568:-1.0010871e-19 2570:0.081776142 2571:-0.00049620005 2572:-1.611225e-20 2573:-2.6123824e-20 2574:-1.1012752e-19 2575:-0.056200523 2576:-0.0072778342 2577:-0.019456061 2578:0.0086214123 2579:-0.023230517 2582:-0.02752105 2584:-0.0031166368 2586:-0.0016248719 2587:-0.01230868 2588:-0.0057462747 2591:-0.0037380746 2592:-0.00064976234 2593:0.024265224 2594:-0.016553117 2595:-0.0033700953 2596:-1.5017464e-20 2597:-1.5017257e-20 2599:-0.020901011 2600:0.0014430617 2601:-0.026754662 2602:-0.014666552 2603:-0.002484832 2604:-0.0043177945 2605:-0.0056000352 2606:-0.00072764262 2607:-2.5028831e-20 2608:-0.032253992 2609:-0.078046523 2610:-0.039868906 2611:-0.16707903 2612:-1.5017257e-20 2613:-0.010823377 2614:-1.5017257e-20 2615:-0.059098471 2616:-0.035756823 2617:0.024760099 2618:-0.015882092 2619:-0.093801305 2620:-0.02592662 2621:-0.00035960501 2622:-1.1012752e-19 2623:-0.0054032318 2624:-0.011324054 2626:-0.00049538916 2627:-0.0058696498 2628:0.049372867 2629:0.0085399849 2630:-0.001971226 2631:-0.022844767 2632:-0.00085499609 2633:0.0058285026 2634:-1.5017257e-20 2635:-0.002996793 2636:-0.00033506699 2637:-0.054042555 2638:-2.0023147e-20 2639:0.022032421 2640:-2.5029658e-20 2641:-0.0048847012 2642:-0.13794716 2643:-0.0013000632 2644:-0.010778069 2645:-0.002378264 2646:-2.0023147e-20 2647:-0.00069575821 2648:-0.006549845 2649:-0.0056147221 2650:-0.019298101 2651:-0.0058179074 2652:-0.068513386 2654:-8.5099514e-20 2657:-2.0023147e-20 2658:-0.0087158298 2659:-0.00035960501 2662:-8.0093004e-20 2663:0.11799139 2664:-0.0069346018 2665:0.047121856 2666:-2.0023147e-20 2667:-0.010227372 2668:-0.0015701557 2669:-0.0040731416 2670:-0.044945471 2671:-3.6136109e-20 2672:0.13363837 2673:-0.0057464009 2674:-8.619368e-20 2675:-0.00035960501 2676:-0.048469469 2677:-0.00049538916 2679:-0.0053242408 2680:-2.6123824e-20 2681:-0.0036930444 2682:-0.0044146688 2683:-0.010073395 2685:-0.042136673 2686:-2.8642607e-19 2687:0.025505887 2688:-0.0080565633 2689:-0.03382121 2690:-0.0023596513 2691:-0.013924802 2692:-0.019518256 2693:-9.5111708e-20 2694:-0.0048709554 2695:-0.0019263772 2696:-0.0006505975 2699:-0.02106349 2700:-2.5028831e-20 2702:-0.0068151476 2703:-0.00035960501 2704:-8.6192853e-20 2705:-2.5028831e-20 2706:-1.5017257e-20 2707:-1.5017257e-20 2708:-8.509786e-20 2709:-0.027193122 2710:-0.024482341 2711:-0.0079201255 2712:-0.038916934 2713:-0.0038667549 2714:0.022256987 2715:0.008958512 2717:-0.00015436423 2718:-0.050502114 2723:-0.011483853 2724:-2.5028831e-20 2725:-0.00049538916 2727:0.10197932 2728:-0.0088511948 2729:-0.0054033576 2730:-0.0082460688 2731:-0.0089577762 2734:-1.5017257e-20 2735:0.090288714 2737:-0.013151754 2738:0.02658676 2739:-0.017443778 2741:-0.0013026965 2743:0.0099491952 2744:-0.0065641212 2746:-0.0055373055 2748:-0.0055693602 2749:-0.017801885 2750:-0.024677545 2751:-0.0064907735 2752:-0.0047038253 2754:-0.0079182507 2755:-0.0050578052 2757:0.026106222 2758:-0.0044766855 2759:-0.057845421 2760:-1.1951244e-19 2761:-0.045344021 2762:-0.010884661 2764:-0.008826525 2765:-1.5017257e-20 2766:-0.010180978 2768:-2.6138897e-19 2769:-1.0011512e-19 2770:-0.0052893637 2772:0.014092321 2774:-0.032600559 2776:-0.018795116 2777:-0.00035960999 2778:-0.014127417 2779:-0.039990243 2782:-0.0061775171 2784:-1.5017464e-20 2786:-0.0096927835 2787:-0.016466897 2788:-2.0023147e-20 2790:-0.042977512 2791:-0.020177238 2792:-0.00056542543 2793:-0.0047038253 2794:-0.0049117054 2795:-0.0048514185 2796:0.016992847 2797:-0.047411904 2798:-0.0074804644 2799:-0.015145506 2801:-3.5041025e-20 2802:-0.00049538916 2803:-2.0023147e-20 2804:-0.019725671 2805:-0.037176538 2807:0.012676817 2808:-0.0058179074 2809:-1.5017257e-20 2811:-2.0023147e-20 2812:-4.0046088e-20 2815:-0.0056147221 2816:-0.0026279767 2819:-1.1951244e-19 2820:-1.5017257e-20 2821:-1.5017257e-20 2822:-1.5017257e-20 2823:-0.0091345403 2825:-0.0046894667 2827:-1.5017257e-20 2828:0.01269071 2830:-0.009369296 2831:-0.0075124418 2833:0.035924226 2834:0.08700154 2836:-1.0121114e-19 2839:-9.5110054e-20 2840:-0.0061880853 2841:-0.019796047 2842:-0.0067399261 2843:-0.014688072 2844:-0.0002901484 2845:-0.00034161066 2846:0.0036213612 2847:-0.068486698 2848:-0.0023596836 2851:-0.0060916869 2852:-0.00062521535 2853:0.0049658692 2854:-2.5028831e-20 2855:-1.5017257e-20 2856:-0.0056000352 2857:-0.19563223 2858:-2.0023147e-20 2859:-0.0069804871 2861:-0.00046952398 2862:-0.0033098334 2864:0.010123665 2865:-0.066818349 2867:-0.0058179074 2868:-8.0092176e-20 2869:-0.0055240993 2870:-0.0042753671 2871:-7.5088147e-20 2873:-0.015194686 2874:-2.5028831e-20 2876:-0.0057462747 2880:-0.00049538916 2882:0.042487849 2883:-0.0016789009 2884:-0.023724072 2885:-2.0023147e-20 2886:-1.1622861e-19 2887:-0.012158737 2889:-0.011779009 2890:-1.5017257e-20 2891:0.0045215199 2893:-0.0037325029 2894:-3.5040612e-20 2895:-0.0050314348 2896:-0.0012558992 2897:0.019474901 2898:-0.025675807 2899:0.009948181 2900:-2.5028831e-20 2901:-0.023043267 2902:-0.015558397 2903:0.010450218 2905:0.009562823 2908:-2.5028831e-20 2909:-8.5099514e-20 2910:0.0066952975 2914:-0.013234893 2915:-0.01818783 2916:-2.0023147e-20 2917:-1.0011512e-19 2918:-1.5017464e-20 2919:-2.5028831e-20 2920:-0.00038603623 2921:-0.10940272 2922:0.038290024 2923:-0.0092567215 2924:-0.033305507 2925:-1.5017257e-20 2926:-1.5017257e-20 2928:0.033265509 2929:0.0085985521 2930:-0.014599616 2931:-0.018253859 2932:-0.0083008949 2933:-1.9522786e-19 2934:-0.048526581 2935:-0.011472504 2937:-0.0046436395 2938:-0.00035960999 2939:-0.0085800299 2941:-0.01452132 2942:-0.0048452495 2943:-0.0064907735 2944:-0.081013881 2946:-1.5017257e-20 2947:-0.0051148077 2948:-0.0091062104 2950:-0.0025140154 2951:-2.0023147e-20 2952:-2.5028831e-20 2954:-0.011406269 2955:-0.085649438 2956:-0.0050641722 2957:-0.012344617 2958:-0.0022419253 2959:0.019416725 2960:-0.008102823 2961:-2.113368e-19 2963:-1.5017464e-20 2964:-8.5098687e-20 2965:-0.032306962 2966:-0.0041508642 2968:-0.022168262 2969:-0.0085800448 2971:-1.5017257e-20 2972:-2.5028831e-20 2973:-2.0023147e-20 2974:-0.0024297223 2975:0.032206893 2976:0.0020845965 2977:-0.011359555 2978:-2.5028831e-20 2979:-0.023715915 2980:-2.0023147e-20 2981:0.031457145 2983:-1.051208e-19 2984:-1.5017257e-20 2985:-0.0050578052 2987:-1.5017257e-20 2988:-0.0057726465 2990:-0.00035960501 2991:-0.0014796314 2992:-0.063124411 2993:-0.0025140501 2994:-0.023583354 2995:-0.06043715 2996:0.0020750123 2997:-0.092914224 2999:-0.046498176 3000:-0.016292375 3001:-0.023151156 3002:-0.0028655867 3003:-0.004447958 3004:-0.00098482042 3008:0.017012283 3009:-0.00038603623 3010:0.0094634602 3011:-0.0060017603 3012:0.007533188 3013:0.036455873 3014:-0.0026319178 3015:-1.5017464e-20 3016:-0.027193122 3017:-0.01628767 3019:-0.0068899072 3020:-0.043898035 3021:-0.017443677 3022:-0.017133372 3023:-0.0021348109 3024:-0.015473578 3025:-3.0034514e-20 3026:-1.5017257e-20 3027:-0.00081054243 3028:-8.509786e-20 3029:0.045991361 3031:-0.002374917 3033:-0.0020867765 3034:0.00030029993 3035:-3.5041025e-20 3037:-0.0024821297 3038:-2.0023147e-20 3039:-1.4516689e-19 3040:-0.0061912737 3041:-0.0087721916 3042:-0.001216487 3043:0.25969318 3044:-0.0049441978 3045:-0.026190367 3046:-0.0028841337 3049:-0.0035570278 3050:-0.00013578415 3051:-0.011493855 3052:-2.5028831e-20 3054:-0.0063613779 3056:-0.0028676977 3057:-0.00069574383 3058:0.056906339 3059:-0.012062266 3060:-0.0050902488 3062:0.020689679 3064:-0.0059828716 3065:-0.0064831069 3066:-1.6018415e-19 3067:-0.0067342985 3068:-1.5017257e-20 3069:-0.0094263311 3070:-0.017972056 3072:-0.0050578066 3073:-0.018304272 3074:-0.017422486 3075:-0.043277606 3077:-1.6018415e-19 3079:-0.028757149 3081:-1.5017257e-20 3083:0.19037522 3085:0.02811737 3086:-0.030442802 3087:-2.0023147e-20 3089:0.0041659535 3090:-0.0071349954 3091:-1.5017257e-20 3092:-0.017738534 3093:-0.077236414 3094:0.015581125 3095:-1.5017257e-20 3096:0.012971737 3098:-2.0023147e-20 3099:-0.0051283683 3100:-0.017973809 3101:-0.0025592779 3102:-1.0512142e-19 3103:-0.00013578415 3104:0.020626694 3105:0.0016572267 3106:-0.046720561 3107:-0.0083162468 3109:0.17258309 3112:-0.05932612 3113:-0.005049252 3115:-0.00035960999 3117:-4.0046088e-20 3118:-3.5041025e-20 3119:-0.0065973797 3120:-0.0069886097 3121:-0.0043280912 3122:-0.16213197 3123:-0.013610406 3124:-8.0092383e-20 3126:-0.0056044962 3127:-0.013809231 3128:-0.0064907735 3129:0.025007807 3131:-0.015509336 3132:-0.0072113369 3133:-3.0034928e-20 3134:0.090698577 3135:-0.00015436635 3136:0.099816017 3137:-0.012537703 3138:-2.5028831e-20 3139:-0.044252362 3140:-0.0058179074 3141:-0.0064845104 3144:-0.014642236 3145:-0.00093411375 3147:-0.0060970206 3148:-0.037216336 3149:-0.13794716 3150:-0.00052097364 3151:0.053085871 3152:0.026916049 3153:-0.0020409259 3154:-0.0051694973 3155:-2.5028831e-20 3156:-0.0059229569 3158:-0.41765401 3161:-0.045423426 3163:-5.1153573e-20 3164:-2.5028831e-20 3165:-0.0025140154 3166:-0.0067468528 3167:0.036710426 3170:0.072106972 3172:-0.0085894139 3173:-0.0063859029 3174:-0.002869379 3178:-1.5017257e-20 3179:0.026754893 3180:-0.017540213 3181:-0.0073990403 3182:-0.0418339 3183:-0.00013578415 3184:-0.0037381491 3185:-0.0094955852 3186:-0.0056527797 3187:-0.011980152 3188:-0.079808794 3189:-0.0053898012 3190:-0.0057199015 3192:0.012701616 3193:-5.5063759e-20 3194:-1.0121011e-19 3195:-0.0055230982 3196:-0.054624669 3197:-0.015094955 3198:-0.0054765027 3199:-0.011880022 3200:-0.0028999266 3201:-1.5017257e-20 3203:-0.019000979 3204:-0.011617858 3206:-0.0059609809 3207:-0.00051396922 3208:-2.0023147e-20 3209:-0.00015436423 3211:-0.0071248258 3212:-2.0023147e-20 3213:-0.0097608818 3214:-2.0023147e-20 3215:-0.0054292949 3216:-0.14584409 3217:-8.509786e-20 3218:-1.5017257e-20 3219:0.0122309 3220:-0.010562493 3222:-0.013308353 3223:-0.0057199015 3224:-0.0064907735 3225:-0.01976634 3227:-0.0079437429 3228:-8.0092176e-20 3229:-0.0078112492 3230:-0.011406292 3231:-0.016276382 3233:0.013839578 3234:-0.0020468235 3235:-2.6123824e-20 3236:-1.5017257e-20 3237:-1.0621641e-19 3238:-0.0049116481 3239:-2.1133908e-19 3240:-2.5028831e-20 3241:-0.066368856 3243:-0.016691877 3244:-0.034659266 3245:-0.0019884808 3246:-0.00035960501 3247:-0.029881366 3248:-0.0050496254 3249:0.050097849 3252:-0.008460179 3254:-1.6018415e-19 3255:-0.0065837782 3258:-0.0002901484 3259:-0.24313594 3260:-0.00046951752 3261:-0.006549845 3262:-0.018182676 3263:-0.037029985 3264:0.0061622639 3266:-0.067822687 3270:-1.5017257e-20 3272:-0.0028399387 3273:0.020819807 3274:-0.013919854 3275:-0.0083077401 3277:-0.0058179074 3278:-0.01122258 3280:0.065380231 3281:-0.0075308615 3283:-0.0020806803 3284:-0.036496993 3285:-0.013234867 3286:-0.0055167028 3287:-1.5017257e-20 3288:-8.5098687e-20 3289:-0.038499795 3291:-0.0063613779 3292:-0.0064183651 3293:-0.010893111 3294:0.030298484 3295:-0.036206976 3297:0.032215163 3299:-0.0023322655 3300:-0.0010286807 3301:-0.07947509 3302:-0.0064907735 3303:-0.0064907735 3304:-1.5017257e-20 3305:-0.00049538916 3306:-0.0012558992 3307:-0.010515274 3308:0.045988917 3310:-2.5028831e-20 3313:-0.0049133464 3314:-2.5028831e-20 3315:-1.5017257e-20 3316:-0.008268822 3318:-0.03481527 3320:-2.0023147e-20 3322:-8.0092176e-20 3323:-0.01130028 3324:-0.00067476759 3325:-0.0038760011 3326:-0.0013656558 3328:-0.0066269371 3329:0.020460311 3330:-4.1141081e-20 3331:-3.0034928e-20 3332:-3.5040612e-20 3333:-0.034659266 3335:-1.5017464e-20 3336:-0.0045873723 3337:-0.00035960501 3338:-2.5028831e-20 3339:-1.5017257e-20 3340:-0.0057726465 3342:-0.0056175943 3343:-1.5017257e-20 3344:0.0063699842 3346:0.0027083824 3347:-0.0040532276 3350:-0.00080636406 3354:-0.0061030863 3355:-0.0076079997 3357:-0.010357143 3359:-0.006011588 3360:-2.5028831e-20 3362:-0.0038307747 3365:-0.020982539 3366:-0.030988092 3367:-0.0049334262 3368:-2.0023147e-20 3371:-0.0050578052 3372:-1.2624007e-19 3373:-0.06229623 3374:-2.5028831e-20 3375:-8.5098687e-20 3376:-0.00039319147 3377:-1.5017257e-20 3378:-0.0050578285 3379:-0.0064907735 3380:-0.0052874936 3381:0.0075824615 3383:-7.5086286e-20 3384:0.03384883 3385:0.017543042 3386:-1.5017257e-20 3388:-0.0058179074 3389:-0.009971357 3390:-0.00033506699 3391:-0.0063413139 3392:-2.0023147e-20 3393:-0.016717741 3394:-1.5017257e-20 3397:-0.085578695 3398:-1.5017257e-20 3399:-0.0016887069 3400:-0.013898157 3401:-0.025620602 3402:-0.0050578052 3403:-0.005974411 3404:-0.0028526769 3407:0.019112684 3408:-0.0064907735 3409:-0.00074564619 3410:-2.0023147e-20 3411:-0.00035960999 3412:-0.00051396922 3413:-1.5017257e-20 3414:-0.06649261 3415:-0.0023636715 3416:-0.0048155175 3417:-0.006595823 3418:-0.00013578415 3419:0.0047198217 3420:-0.001215921 3421:-0.017319186 3422:-1.5017257e-20 3424:-0.0053242492 3425:0.034136418 3426:-0.0069175055 3428:-0.032185622 3429:-0.0087652337 3431:-0.0057199015 3432:-1.5017257e-20 3433:-0.05348333 3434:-0.0088902144 3435:-0.0050832317 3436:-0.0082386592 3438:-0.11738636 3439:-0.00038603091 3440:-0.0075706965 3441:-0.041226171 3442:-0.0089577911 3443:-0.010054857 3444:-2.5028831e-20 3445:-1.5017257e-20 3446:-0.0058475393 3448:-0.0058693611 3449:-0.0033344415 3450:-1.1513362e-19 3451:-0.08182247 3452:-0.00035960501 3453:-0.0027616234 3454:0.025051853 3455:-0.0058179074 3457:-0.016880138 3458:-1.5017257e-20 3459:-0.0091323983 3460:-1.5017464e-20 3461:0.0063254689 3462:-0.0059291502 3463:0.0057982514 3464:-0.0058179074 3465:-0.05322092 3468:0.015602318 3470:-0.0077460422 3472:0.017790345 3473:-0.0053245504 3475:-0.0047377008 3476:0.038853996 3477:-2.5028831e-20 3478:-1.5017257e-20 3479:-0.00046952398 3480:0.028351663 3482:-0.0090694828 3483:-1.5017257e-20 3484:-1.5017257e-20 3485:-0.0058179074 3486:-0.034256767 3487:-0.014320976 3488:0.16581024 3489:-0.014454053 3490:0.011963374 3491:-0.014410931 3493:-0.020385716 3496:-0.0006505975 3497:0.019004216 3498:-0.018068869 3499:-1.5017464e-20 3500:-0.0041819084 3501:0.0041792262 3502:-0.0095839091 3503:-0.0026947553 3504:0.023509281 3506:-0.023722522 3507:-4.0046088e-20 3508:-0.063325495 3511:-0.014263904 3512:-1.5017257e-20 3513:-0.0067234715 3514:-0.00015436635 3516:-0.011469143 3518:-1.8130229e-19 3519:0.01056398 3520:-8.509786e-20 3521:-2.5028831e-20 3522:-0.015381638 3524:-0.00015436423 3525:-0.013372882 3526:-0.0022419076 3527:-0.1861351 3528:-0.010358589 3530:0.044258818 3531:-0.016070962 3532:-0.009068938 3534:-0.015896192 3535:-0.012708175 3536:-0.018298768 3538:-0.0016860277 3539:-0.0070241774 3540:-0.0026102522 3541:0.073619708 3542:0.030983947 3543:-0.0057726465 3544:-0.0076508904 3545:-0.017057301 3546:-0.016073441 3548:-0.003623266 3549:-0.046520665 3550:-0.0051283683 3551:-0.0021002307 3552:-1.5017257e-20 3553:-0.0050578052 3554:-2.0023147e-20 3555:-2.5028831e-20 3556:-0.0076697799 3557:-0.046776272 3558:-0.011832466 3559:-0.0008814201 3560:-0.00057450571 3562:-0.0095206639 3564:-0.00031515327 3567:-0.0056601088 3568:-8.509786e-20 3569:-0.025408968 3570:-0.028471859 3571:0.003487024 3572:-0.016882664 3573:0.072367735 3575:0.0035184948 3576:-0.0047270395 3577:-0.067949824 3578:-0.0058179074 3579:-0.0048325057 3581:-3.0036582e-20 3582:-2.0023147e-20 3583:-0.0081404215 3585:0.005390652 3586:-1.5017257e-20 3587:-1.5017464e-20 3588:0.051518142 3589:-0.011723833 3590:-2.5138494e-19 3592:-0.0055579757 3593:-0.058486972 3594:-0.0079224268 3595:-0.0054324758 3596:-1.3015108e-19 3598:-1.3625134e-19 3599:-0.00015436635 3601:-3.0034928e-20 3602:0.038340721 3603:-0.004203645 3604:-0.071640112 3606:-0.0053797308 3607:-0.0087230792 3608:-0.0076628341 3609:-0.01848276 3610:-1.5017629e-19 3611:-0.036951229 3612:-0.0096168686 3613:0.038862586 3614:-0.099641986 3615:-1.762964e-19 3616:-0.0056474102 3617:-0.092767678 3618:-0.021081561 3619:-0.0062171323 3620:-0.0059027784 3621:0.033397336 3622:-0.004007637 3624:-0.026861917 3625:0.034533154 3626:-2.0023147e-20 3627:0.019106226 3629:0.039768979 3630:-2.5028831e-20 3631:-0.013315437 3632:-0.015915645 3633:-0.0087966109 3635:-0.041035555 3636:-0.0018377341 3637:-0.0057915356 3639:-0.0089577911 3640:-0.00035960999 3643:-0.035461783 3644:-0.33673909 3646:-0.0016603366 3647:-1.5017257e-20 3650:0.021223474 3651:0.026344726 3653:-1.0512142e-19 3654:-0.0088002458 3655:-0.00015436635 3656:-0.031809468 3657:-1.5017464e-20 3658:-0.00035960501 3659:-0.0061474256 3660:-0.0064907735 3662:-1.6519045e-19 3663:-4.0046088e-20 3664:-0.00018104679 3666:-0.0057726465 3667:-0.023562225 3668:-0.02006912 3669:-1.5017257e-20 3670:-2.0023561e-20 3671:-0.00013578603 3672:-2.0023147e-20 3673:-0.0078018778 3674:-8.6192853e-20 3676:-0.00094296347 3677:-1.5017257e-20 3679:-0.015506429 3680:-0.009309222 3681:-0.01340886 3682:-1.5017257e-20 3683:-2.5028831e-20 3685:0.02218092 3687:-0.048168514 3688:-1.5017257e-20 3689:-0.00035960501 3690:-0.0041276733 3692:-0.00033507159 3693:0.038133491 3694:-0.022214659 3695:0.025983715 3696:-0.16561931 3697:-0.012968422 3698:-1.5017257e-20 3699:-0.021207435 3700:-0.008834051 3701:-0.040270489 3704:-0.0052936217 3705:-8.5098687e-20 3707:-0.00051396922 3708:-1.0121011e-19 3710:-0.0092567215 3711:0.020359742 3712:-2.6123824e-20 3713:-0.026813099 3715:-1.5017464e-20 3716:-0.016882963 3717:-0.014710708 3718:-0.005749621 3720:0.0030286112 3721:-0.0063613779 3723:-1.5017257e-20 3724:-2.0023147e-20 3725:-0.0049786884 3726:-0.00015436635 3727:-0.00035960501 3728:-0.0043173023 3729:-0.0058693611 3730:-0.0022058666 3732:-0.036951229 3733:-9.010375e-20 3734:-8.619368e-20 3735:-0.0094964597 3737:-0.014382222 3738:-1.6018415e-19 3740:-1.0011512e-19 3741:0.045863517 3743:-0.00049538916 3744:-0.0092593646 3745:-0.015304631 3746:-0.0020312755 3747:-0.0097326804 3749:-1.6018415e-19 3750:-0.0058179074 3752:0.0064999163 3753:-1.5017257e-20 3754:-0.0031166368 3755:-0.00035960999 3756:-1.5017257e-20 3757:-1.6628503e-19 3758:-0.0069848537 3759:-0.005324115 3760:-0.0074098338 3761:-1.0512142e-19 3762:-0.0056000352 3763:-0.0057565388 3766:-0.0064907735 3767:-0.0040823873 3768:-0.036546327 3769:-0.00035960501 3771:-2.0023147e-20 3772:-0.0041658464 3775:-0.0063772337 3776:0.01169924 3777:-0.0050578052 3778:-0.00096491998 3779:-0.0052981912 3781:-0.005480506 3782:-0.01129749 3783:-0.024460932 3784:-0.0072238124 3785:-0.033470716 3787:0.00099954288 3788:-1.5017257e-20 3789:-8.509786e-20 3791:-2.5029658e-20 3792:-0.00087571878 3793:0.09312322 3794:-0.022211911 3796:-2.5028831e-20 3797:-8.509786e-20 3798:-0.008102823 3799:-8.509786e-20 3802:-2.6123824e-20 3803:-0.0057977289 3804:-8.009259e-20 3805:0.0052799908 3806:-0.0059810486 3808:-1.8521567e-19 3809:-1.6127914e-19 3810:-1.5017257e-20 3813:-0.0010013088 3814:-0.023345461 3815:-0.055430003 3816:-0.0056527797 3817:-0.0022419076 3818:-0.00035960501 3820:-0.35011026 3821:-0.010768704 3822:-2.0023147e-20 3823:0.019407744 3824:-0.0016603209 3826:-2.0023147e-20 3827:-0.0031807157 3828:-2.0023147e-20 3829:-0.0070411651 3830:-0.0064907735 3831:-0.0056674713 3834:-0.023052493 3835:-0.052157469 3836:-2.0023147e-20 3837:-0.11845478 3838:-0.010861338 3839:-0.0052894712 3840:-1.5017257e-20 3841:-0.010538222 3842:-0.0055084117 3844:-2.5028831e-20 3845:-0.0022228765 3846:-0.00047085114 3847:-0.00075524289 3848:-0.0048722974 3849:-0.0091673546 3850:-0.0052125244 3851:-0.0088661369 3852:-2.5028831e-20 3853:-0.0054948553 3854:0.00672956 3855:-0.0088522779 3856:-0.0071246047 3857:-0.0004894312 3858:-0.013982051 3859:-0.011387095 3860:-0.00098482042 3861:0.013810038 3862:-2.0023147e-20 3863:-0.0012071121 3864:-0.0080636097 3865:-0.0076683317 3866:-0.0056514889 3867:0.0059339935 3868:-0.0054860413 3869:-0.0064781429 3870:-0.0084216343 3872:-0.029359154 3873:-1.5017257e-20 3874:-0.030181076 3875:0.077979669 3876:-1.5017257e-20 3877:-0.00049538916 3879:-0.0052874936 3880:0.047021437 3881:-0.021545978 3882:-0.0091715427 3883:-0.011959762 3884:0.036038604 3885:-0.00064976234 3886:-0.035392798 3888:-0.0051628593 3890:-0.0013093414 3891:-0.073613867 3892:-0.019011201 3893:-0.0020318578 3894:-0.0083184876 3896:0.026176741 3897:-0.0056000352 3898:-2.0023147e-20 3899:-0.0058179074 3900:-2.0023147e-20 3902:-0.0076876455 3903:-0.0090632243 3905:-0.0054033669 3906:-0.011208651 3907:-0.051017772 3909:-0.025127368 3910:-0.00049538916 3911:-0.007169974 3912:-0.070307225 3913:0.038333997 3914:-1.5017257e-20 3915:-0.0027642623 3916:-2.5028831e-20 3917:-1.5017257e-20 3918:0.0075824615 3919:-0.0027976602 3920:-2.5028831e-20 3922:-0.0013513148 3925:-1.5017464e-20 3926:-0.0043882946 3927:-0.0096759181 3928:-0.0056000352 3929:0.046794794 3930:-2.6123824e-20 3931:-0.070693173 3932:-0.0025140154 3933:-0.010958798 3935:-8.9478751e-20 3936:-0.011580286 3937:-0.0092567215 3938:0.061291877 3941:-0.093579657 3942:-0.014671737 3943:-0.0033520437 3945:-0.017755756 3946:-0.0054114065 3947:0.008575323 3948:-0.010721907 3949:-1.5017257e-20 3950:-0.0051676049 3952:-0.055325806 3954:-0.33793902 3955:-8.509786e-20 3957:-0.012361685 3958:-0.0045126723 3959:-0.0023769732 3960:-0.0024050788 3961:0.016344424 3962:-0.0059815808 3963:-2.0023147e-20 3964:0.049612261 3965:-1.0011615e-19 3966:-0.0058179074 3967:-0.0052125487 3968:-4.1141081e-20 3969:-4.4426152e-20 3970:-0.006595823 3971:-1.1012752e-19 3972:-0.0058179074 3973:-0.055436313 3974:-0.0070223021 3977:-0.0064907735 3978:-0.0055084117 3979:-2.0023147e-20 3980:-0.0096704848 3981:-0.02897544 3982:-0.004733819 3983:0.038446747 3984:-0.0043216934 3985:-0.0066874428 3986:-0.0064907735 3987:0.037878107 3988:0.019483047 3989:-0.0056000352 3990:-0.00035960999 3991:-0.0046436395 3992:-2.0023147e-20 3993:-0.0074098352 3994:-0.0051544318 3995:-0.05853048 3996:-0.00088143221 3998:0.012667061 3999:-2.0023147e-20 4000:-1.5017257e-20 4001:-0.0089577911 4002:-0.011093966 4003:-0.00096490671 4004:-0.0057462747 4006:-0.010458892 4007:-0.051759765 4008:-2.6123824e-20 4009:-1.0512183e-19 4010:-0.030298188 4012:-0.00035960501 4013:-0.0040657385 4014:-0.00015436423 4016:-2.5028831e-20 4017:-0.00015436423 4018:-0.023834974 4019:-1.5017257e-20 4020:-0.0040532276 4021:-0.049190287 4023:-2.5028831e-20 4024:0.0063141393 4025:-1.5017257e-20 4026:0.063742727 4028:-0.0068451469 4029:-2.0023147e-20 4030:-0.011757969 4031:-1.5017464e-20 4033:-0.0011710789 4034:-0.0030331295 4035:-0.0072387666 4036:-0.0057462747 4037:0.035798322 4041:-2.0023147e-20 4042:-0.0059743235 4043:-0.0030993291 4044:-0.0051694973 4045:-0.0036350747 4046:-0.010053721 4047:-0.00046952398 4048:-0.0071528526 4049:-0.039541546 4050:-0.0048514185 4051:-0.00031515327 4052:-0.026813082 4053:-0.0057915356 4054:-0.038863406 4055:-0.017403765 4056:-0.013228161 4057:-0.0022051188 4058:-0.00051396922 4059:-0.00062522397 4061:-0.043879397 4062:-0.032032959 4063:-0.0055209184 4064:-0.031809468 4065:-0.00049538916 4066:-0.00057451363 4067:-0.0059295949 4068:-0.00051396922 4069:-0.044023242 4072:-0.002945309 4073:-0.008116724 4075:-0.033822935 4076:-0.0065031922 4077:-2.5028831e-20 4080:-0.014410931 4081:-2.0023147e-20 4082:-0.012508809 4083:-0.00035960501 4085:-0.00049538916 4086:-2.5028831e-20 4087:-2.0023147e-20 4088:-8.509786e-20 4091:0.0027416239 4092:-0.0032518876 4093:-0.0061320513 4094:-0.0023596513 4095:-1.0121537e-19 4097:-0.005057862 4098:-0.026979487 4099:-0.0031166368 4100:-1.5017257e-20 4102:0.015601422 4103:-0.00057450571 4104:0.0070235375 4105:-2.0023147e-20 4106:-0.0030270077 4107:0.011997 4109:-0.063517101 4110:-0.014272344 4111:-0.0065641212 4112:0.028947257 4113:-0.0013958754 4114:-0.013871501 4115:0.056227617 4116:-0.00049538916 4117:-1.5017257e-20 4118:-0.00051396922 4119:-0.049564235 4120:-0.00049538916 4121:-8.509786e-20 4123:-0.012594737 4124:-1.5017257e-20 4125:-0.034744136 4126:-0.0058179074 4127:-2.9408894e-20 4128:-0.015041186 4129:-0.023478165 4130:-0.020818124 4131:-0.00227097 4132:-0.006595823 4134:0.01916598 4135:-7.5086286e-20 4136:-0.00041452757 4137:-0.025375674 4138:-0.0091602746 4139:-0.20843938 4140:-0.025658291 4141:-0.027542584 4143:-0.025620602 4144:0.10413261 4145:-0.00065675779 4146:-0.018085847 4147:-0.0057726465 4148:-0.010487054 4149:-0.0056175943 4150:-1.0512142e-19 4151:-0.00099133258 4152:-0.007272542 4155:-1.5017257e-20 4156:-0.088309191 4157:0.043682572 4158:-0.0757415 4159:-0.0058179074 4160:-0.0023539301 4161:-0.02598195 4162:-0.0033246037 4163:-0.0050695469 4164:-0.013901022 4165:-0.0082505634 4166:-0.01647988 4168:0.0054513793 4169:-0.015646128 4171:-0.0052128588 4172:-2.0023147e-20 4173:-0.0055209184 4174:-0.0050903806 4175:-0.00033507159 4176:0.024843415 4177:-0.0054061129 4179:-2.0023147e-20 4180:-1.813027e-19 4181:-0.0010286807 4182:-0.013794526 4183:-0.0071813194 4184:-0.0060114623 4188:-0.005998122 4189:-0.0019884808 4190:-2.6123824e-20 4191:-0.0039988803 4192:0.0058252891 4193:-0.028665006 4194:-0.0010167147 4195:-0.013048497 4196:-2.0023147e-20 4197:-0.0097326804 4198:-0.0054860413 4199:0.0027827099 4200:-0.005389811 4205:-0.002417831 4207:-1.5017257e-20 4208:-0.0052893637 4209:0.025445946 4211:0.10825245 4212:-0.02359907 4213:-3.5040198e-20 4214:-0.023303937 4215:-0.0050946386 4216:-0.0038760069 4217:-0.0099615408 4218:-0.00049539597 4219:-0.044891011 4220:-0.01611929 4221:-0.014298115 4222:-2.0023147e-20 4224:-0.000785048 4225:0.070960723 4226:-0.0064992341 4227:-0.0066874428 4229:-0.0010057993 4230:-8.5098687e-20 4231:-0.031370997 4232:-0.0082330592 4234:-0.005162925 4235:-0.004481391 4236:-0.0055239801 4237:-0.032928396 4238:-0.0058694975 4239:-0.00013578603 4240:-0.0076970714 4242:-1.2451874e-19 4243:-0.00051396922 4244:0.01208197 4245:-0.0063859029 4246:-0.0035759965 4247:-0.00035960999 4248:-0.0023437387 4249:-1.0512142e-19 4250:-1.5017257e-20 4252:-0.00051396922 4254:-0.0054807491 4255:-0.037474982 4256:-0.0064455126 4257:-0.070524111 4259:0.026976502 4260:-0.0058693611 4261:-0.0070241774 4263:-0.0064183651 4264:-2.5028831e-20 4265:0.028494021 4267:-0.0043871314 4268:-0.0065837782 4270:-0.0025140154 4271:-0.0045227786 4273:-0.051570475 4274:0.0046258462 4275:-0.092764311 4276:-0.015727695 4278:0.075643666 4279:-0.015951984 4280:-0.032107618 4281:-0.0058179074 4283:0.22567914 4284:-0.043434419 4285:-0.0047442308 4287:-0.002270933 4288:-8.509786e-20 4290:0.021924378 4291:-0.00096490671 4293:-0.0058693611 4294:-0.018811477 4295:-1.5017257e-20 4296:0.043682572 4298:-0.0054294053 4299:-2.0023147e-20 4300:-0.0053245504 4301:-0.0049786884 4302:-0.008108872 4303:-0.00057450571 4304:-0.0050578052 4305:-0.0056264079 4307:0.025936043 4308:-0.033889916 4309:-0.0020312755 4310:-0.025632955 4312:-0.00049539597 4313:-8.0092176e-20 4315:-0.0036928118 4316:-0.0065949741 4317:-2.0023147e-20 4319:-0.00062525843 4321:-1.5017464e-20 4322:-0.018032724 4323:-0.014607442 4324:0.63344043 4325:-0.057161119 4326:-2.5028831e-20 4327:0.069407277 4328:-0.015203689 4329:-0.026979428 4330:-0.079501756 4331:-0.0066194488 4332:0.0088992137 4333:-0.005049252 4334:-0.023941737 4335:0.12303308 4336:-0.0036350747 4337:-0.0056310594 4338:-0.0055397972 4339:-0.012351417 4340:-0.037582155 4341:-0.0050578285 4342:-0.021025538 4343:-0.0017099519 4345:-0.0043882946 4348:-0.010743743 4350:-0.0057462747 4351:-0.00081054243 4352:-0.0072137038 4353:0.024042903 4354:-0.0036523791 4355:-0.025616379 4358:-0.025229709 4359:0.0087550031 4360:-4.1141081e-20 4361:-0.027898032 4362:-0.0083524538 4363:0.015017028 4364:-0.00033506699 4366:-0.061164819 4368:-0.0057565388 4369:-2.5028831e-20 4370:-0.0057726465 4371:-2.0022734e-20 4372:-1.5017257e-20 4373:-0.0058179074 4375:-2.5028831e-20 4376:-1.7019572e-19 4377:-0.0047026775 4378:-0.0071760607 4379:-0.0096050482 4380:-2.5028831e-20 4381:-0.0033293013 4382:-1.5017257e-20 4384:-4.0046088e-20 4385:-0.012920745 4386:-0.0064907735 4388:0.0018551206 4389:-1.0121011e-19 4390:-0.086024024 4391:-0.1118857 4392:-0.0058179074 4394:0.06362018 4396:-0.0023679626 4397:-0.013805575 4398:-0.082980417 4399:-0.010682095 4400:-0.052655496 4401:0.0099596577 4403:-8.509786e-20 4404:-0.18825628 4405:-1.2013868e-19 4406:-0.014964778 4408:-0.02300917 4409:-0.031146163 4410:-0.00048943795 4411:-1.5017257e-20 4412:-0.00076228956 4413:-0.0029967651 4414:-2.5028831e-20 4415:-1.6628503e-19 4416:-0.00095145631 4417:-0.00013578415 4418:-0.0096671237 4419:-0.0083347866 4420:-8.509786e-20 4421:-0.0050578052 4422:-0.00035960501 4423:-0.0090632243 4425:-0.0042559183 4427:-2.0023147e-20 4428:-0.0051864856 4429:-0.0056000361 4430:-0.031366087 4431:-2.5028831e-20 4432:-2.5028831e-20 4434:-0.015297316 4435:-0.0056514889 4436:-0.0061030863 4437:-0.023580572 4438:-7.5086286e-20 4439:-8.509786e-20 4440:-0.0038359019 4443:-1.5017464e-20 4444:-0.034744136 4445:-0.0089577911 4446:-6.0069442e-20 4447:-1.5017464e-20 4448:-0.0067468481 4449:-0.035994861 4451:-0.0075025675 4452:-0.00035960501 4453:-0.0058179074 4455:0.12699491 4457:0.0059390282 4458:-0.0053913426 4459:-0.0056264079 4461:-0.0055900388 4462:-2.5028831e-20 4465:-0.022381028 4466:-0.020752238 4467:-0.0020462489 4468:-2.5028831e-20 4469:0.073657237 4470:-0.00035960501 4471:-2.0023147e-20 4474:0.34082961 4476:-0.0064907735 4477:0.050071914 4478:0.020354621 4479:-0.013195923 4480:0.031743813 4482:-1.6127914e-19 4483:-1.5017257e-20 4484:-0.0030270754 4486:-1.5017257e-20 4487:0.0067814817 4488:-0.0051694973 4489:-0.019640831 4490:-1.6519789e-19 4491:-0.007361081 4492:-2.0023147e-20 4493:-1.5017257e-20 4494:-8.6192853e-20 4496:-0.0031236887 4497:0.053085871 4498:-0.13197969 4499:0.13078766 4500:-0.036427207 4501:-0.01500436 4502:-0.008616114 4503:-1.5017257e-20 4504:-0.005324115 4505:-2.0023147e-20 4506:-0.0025390203 4507:-0.0035119727 4508:-0.006595823 4509:-1.0011574e-19 4510:0.021948807 4511:-0.0073950128 4512:-0.0079233991 4513:-2.0023147e-20 4514:-0.0057713557 4515:-0.035461783 4516:-0.0050578052 4517:-0.0053235367 4518:-0.1137049 4519:-2.0023147e-20 4520:0.032207053 4521:-0.005559857 4522:-1.5017257e-20 4524:-1.5017257e-20 4525:-0.0026791496 4526:-1.762964e-19 4527:-0.0055801612 4528:-0.0052124229 4529:-0.020692043 4530:-0.00051396922 4531:-2.5028831e-20 4532:-0.0063721184 4533:-0.00087571878 4536:-2.0023147e-20 4538:-0.01152914 4539:-0.0064063268 4540:-1.5017464e-20 4541:-0.0087230671 4544:-0.066081889 4545:-0.0071819038 4546:-2.0023147e-20 4547:0.028521556 4549:0.035988167 4551:-0.011411805 4552:-0.031635839 4553:0.077207051 4555:-0.0008814201 4556:-0.002692512 4557:-0.0046821279 4559:-0.048379749 4560:-1.752043e-19 4561:-0.010987423 4562:-1.6519045e-19 4563:-0.0033516975 4564:-0.0021773705 4565:-0.0018803084 4566:0.059842754 4567:-0.0062444336 4568:-0.0036523843 4569:0.021223474 4571:-0.0093606757 4572:0.0036379436 4573:-0.0059666424 4574:-0.0037473205 4575:-1.5017257e-20 4576:-0.0064393193 4577:-1.5017257e-20 4578:-8.509786e-20 4579:-0.0057462747 4580:-0.00013578603 4581:-0.004201822 4582:-0.015300483 4583:-1.6519045e-19 4585:0.0041200826 4586:-1.4016121e-19 4587:0.026606832 4588:-0.0090633864 4589:-0.0083578592 4590:0.44984975 4591:-0.0067110993 4592:-0.0048946491 4593:-0.027965786 4594:-0.0048539666 4595:-2.5028831e-20 4596:-0.0058179074 4597:-0.0058179074 4598:-0.0076994463 4599:-1.5017257e-20 4600:0.0339466 4601:0.056739517 4602:-8.509786e-20 4603:-0.017542396 4604:-0.01654193 4606:-0.00031515761 4607:0.053085871 4609:-0.0038552475 4610:0.033716008 4611:-0.0042559896 4612:-0.00096490671 4613:-0.0014304314 4614:-1.5017257e-20 4615:-0.013798904 4617:-0.015052416 4618:-2.0023147e-20 4620:0.024920292 4621:-0.16213197 4622:0.14665273 4623:-0.0060814386 4625:-0.017504536 4627:0.058656763 4628:-1.5017257e-20 4629:-0.0033293699 4630:0.00030091443 4631:-0.010034288 4632:-0.00049538916 4633:-0.0052850023 4635:-0.00015436423 4636:-0.01230868 4637:-1.0621641e-19 4638:0.064010061 4639:-0.0051091709 4640:-0.23400632 4641:-1.0121114e-19 4642:-0.086948521 4643:-0.01147411 4644:-0.099049561 4646:-0.0010198718 4647:0.019483047 4648:-0.26379773 4649:-0.0064781429 4650:-2.0633348e-19 4652:-0.12523581 4654:-0.079864383 4655:-0.0058179074 4656:-0.28760269 4657:-0.030939911 4658:-0.071625829 4660:-1.5017257e-20 4661:-0.0052611209 4662:-0.0048081698 4664:-0.0015821633 4665:-0.046079043 4666:-0.0068363114 4668:-0.019221179 4669:-2.0023147e-20 4670:-0.0066874428 4673:-0.0052346741 4674:-0.004892169 4676:-8.0093004e-20 4677:-0.0030458071 4679:-0.0057494948 4680:-1.0011512e-19 4681:-0.056900099 4682:-0.003981181 4684:-0.00035960999 4685:0.072104074 4687:-0.00051400461 4689:-1.5017257e-20 4690:0.20521587 4691:-0.0051629161 4692:-0.0053063817 4693:-0.0030457892 4694:0.027932927 4695:-0.0093160449 4696:-0.0095922099 4697:0.024318319 4698:-0.0062027141 4699:-0.0067043216 4700:-0.11002745 4701:-2.5028831e-20 4702:-0.00035960501 4703:-0.0043882946 4705:-0.0094389496 4707:-0.072930425 4708:-0.0026109114 4710:-0.0076456149 4711:-0.004193271 4712:-1.5017257e-20 4713:-0.02728427 4717:-0.0016789009 4718:-1.5017257e-20 4719:-1.5017257e-20 4720:-0.00069575821 4722:-9.010375e-20 4723:-0.013283082 4724:-1.6519128e-19 4725:-0.0083627366 4727:-0.0035646171 4728:-0.051187102 4729:-0.00035960999 4730:-0.0051694973 4731:-0.0058179074 4733:-0.047823451 4735:-1.7019572e-19 4737:-0.15591374 4738:-0.0047748503 4739:-0.061802823 4741:-0.013876015 4742:0.0028444885 4743:-0.011617858 4745:-0.0027306059 4746:-2.5028831e-20 4747:-0.0050695469 4748:0.048378546 4749:-2.0132821e-19 4750:-0.0021544402 4752:-0.03667194 4753:-0.0018661412 4754:-0.009199894 4755:-0.03555109 4757:-0.0058179074 4758:-0.0057462747 4760:-0.0058429893 4761:-0.0058179074 4762:-0.012669044 4763:-0.0064907735 4764:-0.018267013 4765:-0.0049786884 4766:-2.1118141e-20 4768:-0.0054948553 4769:-0.0050903806 4770:-3.0034514e-20 4771:-1.5017257e-20 4772:-2.0023147e-20 4773:0.042553421 4774:-0.011466177 4775:-1.5017257e-20 4776:-0.00035960501 4777:0.0012304874 4778:-2.0023147e-20 4780:-0.015204657 4782:0.05507002 4783:0.021912521 4784:-0.011384821 4785:-2.5028831e-20 4786:-2.0023147e-20 4787:-0.03394825 4788:0.015570163 4789:-0.05290582 4790:-0.0054949867 4791:-0.018376525 4792:-0.0014708228 4793:0.015886454 4794:-0.0080565633 4795:-0.01371163 4796:0.17720641 4797:-8.509786e-20 4799:-0.017630178 4800:-0.00074564619 4801:-0.0013512691 4802:-2.5028831e-20 4803:-2.0023147e-20 4805:0.035569802 4806:-0.020464635 4807:-0.005049252 4809:0.072804376 4810:-0.003567239 4811:-1.5017257e-20 4812:-8.509786e-20 4813:-0.0093160449 4814:-0.0025654715 4816:-0.0056410991 4817:-0.05322092 4818:-0.0056585986 4820:0.029652556 4821:-8.6192853e-20 4822:-2.0023147e-20 4824:-0.002609934 4825:-0.13794732 4826:-0.0057726465 4827:0.026119912 4828:-0.023048382 4831:-0.018515315 4832:-0.011590553 4833:-0.01500436 4834:-1.5017257e-20 4836:-0.0055619031 4837:-0.17659156 4838:-0.0010611664 4839:-0.0058179074 4840:-0.027166126 4841:-0.019213066 4842:-0.077940501 4843:-0.0077605555 4844:0.03160125 4846:-8.509786e-20 4847:0.0083559649 4848:0.0075824615 4849:-0.013019713 4850:-1.6628503e-19 4853:0.028343556 4854:-1.5017257e-20 4855:0.0041743773 4856:-8.0093417e-20 4857:0.084772505 4859:-0.095817871 4860:0.053721692 4861:0.15766318 4862:-2.0023147e-20 4863:-2.0022734e-20 4864:-0.0048514185 4865:-0.0043687583 4866:-0.38407075 4867:-8.509786e-20 4868:-2.0023147e-20 4869:-0.04163437 4871:-1.5017257e-20 4872:-0.0065006651 4875:-4.5054874e-20 4877:-0.050568648 4878:-0.028954323 4880:-0.00015436423 4881:0.030733034 4883:-0.0057726465 4884:-0.003019918 4885:-0.018096615 4886:-0.0033519743 4887:-0.0087230671 4888:-0.00162623 4890:-8.6192853e-20 4891:0.0052799908 4893:-0.0050496254 4896:0.013773301 4897:0.0050688153 4898:0.0065087094 4899:-0.0056514889 4900:-2.5028831e-20 4902:-0.0020312755 4903:-2.5028831e-20 4905:-0.0040731514 4907:-0.0070227906 4908:-2.0023147e-20 4909:-0.0061344486 4910:-0.014862063 4911:-0.0054073604 4912:-0.01574816 4913:-0.0053505627 4914:-0.0072100479 4915:-0.0052042436 4916:-0.011165429 4921:-2.6123824e-20 4922:-0.00046951752 4923:-0.0057462747 4924:-2.5028831e-20 4925:-0.019373562 4926:0.035924632 4927:-1.5017257e-20 4929:-0.00035960501 4930:0.081714079 4931:-0.0079038609 4932:-2.0023147e-20 4933:-2.0023561e-20 4934:-1.5017257e-20 4935:-0.00060112326 4936:-0.0073752929 4939:-0.0053006145 4940:-0.0058179074 4941:-0.014373439 4942:-0.0083524454 4943:-1.7129133e-19 4944:-0.014620183 4945:-0.0069768117 4946:-0.0046198536 4950:-0.036951229 4951:-0.0012843405 4952:-0.00015436635 4953:0.0092074983 4956:-0.0076456149 4957:-0.010064139 4958:-0.06848143 4960:-1.4517516e-19 4962:0.024920765 4963:-1.5017257e-20 4964:-0.012306871 4965:-0.0078249527 4966:-1.4516689e-19 4969:-0.032600559 4970:-0.00081054243 4971:0.025635948 4972:-8.509786e-20 4973:-1.5017257e-20 4974:-1.5017464e-20 4976:-0.030001508 4977:-0.036855727 4978:-0.042734403 4979:0.075293824 4980:-0.031126771 4981:-0.0040731416 4982:0.0041200826 4983:-0.0057199015 4984:0.0086218249 4986:-2.0022734e-20 4987:-0.016429547 4989:-0.0070329811 4992:-0.00074563595 4993:-0.00049538916 4996:0.0099579943 4997:-0.089242503 4998:-2.0023147e-20 4999:-0.00035960501 5000:-0.0063613779 5001:-0.0088902144 5002:-2.6123824e-20 5003:-0.00035960501 5004:-0.0078701759 5005:-1.5017257e-20 5006:-1.5017257e-20 5007:-2.0023561e-20 5008:-0.0057726465 5009:-0.006595823 5010:-0.00035960501 5012:-0.012158737 5013:-0.0061912737 5014:0.027356992 5015:-0.043899294 5016:-0.0058241007 5018:-0.029634017 5019:-0.011481609 5020:-0.06328968 5023:-0.0053647365 5024:0.033744022 5025:0.024578148 5028:-0.040433064 5029:-0.11403355 5030:-0.02712038 5031:-0.0013716621 5032:-2.5028831e-20 5034:-0.0084087243 5038:-0.010144697 5041:0.020978743 5042:-0.014758908 5043:-0.00049538916 5044:-0.006595823 5045:0.050987214 5046:-1.0011512e-19 5049:0.0067814817 5052:-0.010053721 5054:-0.0064907735 5055:-0.0049976707 5056:-7.5086286e-20 5058:-1.5017257e-20 5059:-0.0051073693 5061:0.0057662008 5062:-0.022928648 5063:-0.006595823 5064:-0.0057199015 5065:-0.018148655 5066:-0.0064907735 5067:-2.0023147e-20 5068:-0.0063131899 5070:-0.01036553 5071:-0.00035960501 5072:-0.027625112 5073:-0.00049538916 5075:-0.012832301 5076:-0.0030740367 5078:-1.0011615e-19 5079:-8.0092176e-20 5081:-0.011764383 5083:-1.5017257e-20 5084:-0.012344617 5085:-0.0077494252 5086:0.030924143 5087:-0.044300351 5089:-0.013540079 5090:-0.0024795227 5091:-0.017369131 5092:-0.013189592 5093:0.081602663 5095:-2.5028831e-20 5097:-0.00096147048 5099:0.0038378632 5100:-0.0043022772 5101:-0.0015586059 5102:-0.052154288 5103:-0.023505937 5104:0.076614 5107:-0.037097428 5108:0.098915264 5109:-0.016101902 5110:-2.0023147e-20 5112:-2.7860469e-19 5114:-0.0010012917 5116:-1.5017257e-20 5117:-0.015358795 5120:-0.0059221061 5122:-0.02499892 5123:0.15110353 5124:0.0099739227 5125:-0.0015901439 5129:-8.509786e-20 5131:-0.00095104257 5132:-0.010280273 5133:-8.5099514e-20 5134:-1.4516689e-19 5136:-0.11606321 5138:-4.0046295e-20 5140:0.061555337 5141:-1.6628503e-19 5142:-0.00035960501 5143:-0.034661986 5144:-0.0056280587 5146:-0.0057463809 5147:-4.1141081e-20 5148:-0.016961098 5149:-1.5017257e-20 5150:-0.0004694981 5151:-2.0023147e-20 5152:-0.0060346443 5153:-0.057112135 5154:-1.6519789e-19 5156:0.0052799908 5157:-2.0023147e-20 5158:-1.5017257e-20 5161:-0.0046630949 5162:-0.009961714 5164:-2.6123824e-20 5165:-2.0023147e-20 5167:-2.6123824e-20 5168:-0.0016860277 5169:-0.0088574328 5170:-0.0026954769 5172:0.052092694 5173:-0.016055299 5174:-0.0028806247 5175:0.032650094 5176:-0.0052347584 5177:-1.0512142e-19 5178:-0.040275376 5179:-0.001215921 5181:-8.0092176e-20 5182:-0.00046951752 5183:-0.067272991 5184:-0.01947616 5185:-0.055255674 5186:-0.022852141 5187:-0.0022626102 5188:-0.0014708092 5189:-0.0025654715 5190:-0.18481897 5191:-0.04324954 5193:-0.010861338 5195:-0.0033344415 5196:-0.014710708 5197:-0.026289411 5199:-0.025270084 5200:-1.8020957e-19 5202:-0.0056852205 5203:-0.0069196182 5204:-2.0023147e-20 5206:-0.0051694973 5207:-8.0092176e-20 5208:-0.0057128533 5209:-0.00056542543 5210:-0.0093366569 5212:-2.0023147e-20 5213:0.033848867 5215:-0.025070194 5216:-0.0082460735 5217:-0.0034008049 5219:-0.0056527797 5220:-0.0047038253 5222:-0.0020408838 5223:-1.5017257e-20 5225:-1.5017257e-20 5227:0.0030883399 5228:0.18509303 5229:-2.5028831e-20 5230:-0.016629426 5231:-0.0080636097 5232:-0.017973809 5233:-1.5017464e-20 5234:0.0039200173 5235:-0.015283841 5236:0.036892656 5237:-1.0011512e-19 5238:-0.025585368 5239:-1.5017257e-20 5240:-2.5029658e-20 5241:-0.00035959017 5242:-0.0061616697 5243:-0.0094694123 5244:-0.17099075 5245:-0.0096759181 5246:-0.0064398204 5247:-0.0068914471 5248:-0.0063940585 5249:-0.033898186 5250:0.052424904 5252:-1.6127914e-19 5253:-0.0009871542 5254:0.01798561 5255:-0.0057213474 5256:-0.0056407852 5257:-0.0047270395 5258:-0.037278008 5259:0.041862253 5260:-0.0044999868 5261:-0.001175629 5262:-0.0094905999 5264:-0.0061912737 5267:-2.0023147e-20 5269:-8.509786e-20 5270:-0.0058179074 5271:-0.0047852774 5272:0.036665458 5273:-0.0096456213 5274:-0.0056176335 5275:0.022972347 5276:-0.0066874428 5277:-0.0092567215 5281:-2.0023147e-20 5283:-0.070020117 5284:-0.00049538916 5286:-2.0023147e-20 5287:-1.5017257e-20 5288:-0.0059291502 5290:0.00582851 5291:-0.051759765 5292:-0.0023678134 5293:-0.0052893637 5294:-2.5028831e-20 5295:-4.4426152e-20 5298:-0.031841103 5299:-0.00035960501 5300:-1.5017257e-20 5301:-0.0097326804 5302:0.019474916 5303:-0.0098244268 5304:-0.0052874936 5305:-0.056631964 5310:-0.0058179074 5312:-0.00074564619 5313:-0.01610926 5314:-1.5017257e-20 5315:-0.02983685 5316:-0.15192975 5317:-0.013789184 5319:-0.0056000352 5320:-0.023093596 5321:-0.026193462 5322:-8.1189328e-20 5323:-1.6519045e-19 5324:0.036755588 5325:-0.0018229948 5326:-0.023137081 5327:-2.5028831e-20 5328:0.024272433 5329:-0.0050578052 5330:-0.0038359019 5331:-0.068240866 5333:-2.5028831e-20 5334:-0.026454696 5335:-1.5016637e-20 5336:-0.0049977629 5337:-0.0079224929 5338:0.046918329 5339:-1.5017257e-20 5340:-0.00049536873 5341:-0.086039148 5342:-0.017029442 5344:-0.066818349 5345:-0.026721006 5346:-0.0061304094 5347:-0.013311996 5348:-0.00087571878 5349:-0.0058179074 5350:-1.0011512e-19 5351:0.022033447 5352:-0.0012071121 5353:-0.0054324758 5354:-0.0053105969 5355:0.0010115628 5357:-0.0052611209 5358:0.008806549 5359:-1.0011615e-19 5360:-0.062996902 5361:-0.00049538916 5362:-0.0067643328 5364:-0.024495039 5366:-4.1141081e-20 5367:-1.0011512e-19 5368:-0.0058179074 5369:-0.0067961439 5370:-1.5017257e-20 5372:-0.12996051 5373:-1.5017257e-20 5374:-0.012783317 5375:-0.00015436635 5376:-2.0023147e-20 5377:-0.10070052 5378:-1.5017257e-20 5379:-0.0011710951 5381:-2.0023147e-20 5382:-0.012924534 5383:-0.006595823 5386:-0.0082866969 5387:0.04844375 5389:-0.023024328 5390:-1.3275295e-05 5391:-0.0076681124 5392:-0.024897737 5394:-0.0057915356 5395:-2.5028831e-20 5396:-0.017242029 5397:-0.0064907735 5398:-2.0023147e-20 5399:-2.0023147e-20 5400:-2.0023147e-20 5402:-0.00013578603 5403:-0.014995256 5404:0.040684413 5405:-1.5017257e-20 5406:-0.052457165 5407:-1.5017257e-20 5409:-4.1141288e-20 5410:-0.0080565633 5411:-0.071228147 5412:-1.5017257e-20 5413:-0.00035960501 5415:-1.0621641e-19 5416:-0.0058179074 5417:-1.5017257e-20 5418:0.44612965 5419:0.05912048 5420:0.040841687 5421:-0.014415536 5423:-0.024427138 5424:-2.5028831e-20 5425:-0.0026318966 5426:-0.0071684578 5429:-0.046978541 5431:-2.5028831e-20 5432:-1.5017257e-20 5433:-2.5028831e-20 5435:-0.0074680257 5436:0.0040995269 5437:-2.0023147e-20 5441:-0.01112225 5442:0.16045702 5443:-0.042774014 5444:-0.0083634192 5445:-0.033437353 5446:-0.0059828716 5448:-0.0054157386 5449:-0.0086911768 5450:-2.6123824e-20 5452:-0.053869665 5453:-0.021078942 5454:-0.0053773415 5455:-0.0054016355 5456:-0.017051332 5457:0.0013093987 5458:-0.023552127 5459:-0.0084226709 5460:-0.051964197 5461:-0.055502795 5462:-0.0058693611 5463:-0.0081221573 5465:-0.0058241007 5466:-0.00088962226 5467:0.078660205 5469:-8.6192853e-20 5470:-0.068717904 5471:-0.0061367634 5472:0.0055249827 5473:-0.016359655 5474:-0.024272783 5475:-0.066604197 5477:-0.10048909 5479:-0.049440704 5480:-0.00038603091 5482:-0.0055230982 5483:-0.0013210805 5484:0.0095663071 5485:-0.046079043 5486:-0.0077094981 5487:-3.2036829e-19 5491:-0.00049536873 5493:-0.056163732 5494:-0.087061316 5495:-0.044772048 5496:0.041028112 5497:-0.041143525 5498:0.026657348 5499:-0.035487805 5500:-0.0050578052 5501:-0.03506447 5502:-0.0052982802 5503:-6.0069029e-20 5504:-0.0098912325 5505:-0.0052761743 5506:-0.00049538916 5507:-2.5028831e-20 5508:-0.0040823873 5509:-0.10542741 5510:-2.5028831e-20 5511:-0.005154538 5512:-8.6192853e-20 5513:-0.0050946386 5514:-0.0037380746 5515:0.033848882 5517:-4.1141081e-20 5518:-0.01500436 5520:0.013318861 5522:-2.0023147e-20 5523:-0.00096490671 5526:0.048061848 5527:-1.5017257e-20 5528:-0.0050842469 5529:-0.074035451 5530:-0.039150644 5531:-0.0024974041 5532:-0.0227996 5533:-7.5086286e-20 5534:0.015096564 5535:-0.00051397632 5536:-1.5017257e-20 5537:-0.0059290589 5538:-0.019227535 5539:-0.009404459 5540:-0.0057462747 5541:-0.0077353884 5542:-0.002269 5543:-0.00033506699 5544:-0.0055661793 5545:-0.00076191232 5546:-0.039118148 5547:-0.030871745 5548:-0.017020456 5551:-0.00035960501 5552:-0.0066874428 5553:-1.5017257e-20 5555:-0.0092593646 5556:-0.00096367922 5558:-0.04710618 5559:-0.0057651624 5560:-0.012713632 5561:0.0046169409 5562:-8.6192853e-20 5563:0.0061875889 5564:0.0047490578 5566:-0.029928526 5567:-0.0067828274 5568:-6.0069856e-20 5569:-3.0034928e-20 5570:0.016434189 5571:-2.0023147e-20 5572:-0.072426796 5573:-1.5017257e-20 5574:-0.0048738606 5575:-1.5017464e-20 5576:0.073623538 5578:-0.010452417 5579:-0.012229094 5580:0.0061622639 5581:-0.011489211 5582:-0.021996863 5583:-0.0019670425 5584:-0.022427078 5586:-0.020555561 5587:-0.0052893637 5588:-0.006595823 5589:0.010047664 5590:-0.079676807 5591:-0.0056081116 5592:-1.5017257e-20 5593:-1.6018415e-19 5594:-0.014548436 5595:-0.062195778 5596:-0.0056051263 5597:0.0043567657 5598:-0.014252799 5599:-0.1763249 5600:-1.5017257e-20 5601:0.01460181 5602:-1.5017257e-20 5603:-8.0093004e-20 5604:-0.00049538916 5605:-0.0057462747 5607:-0.0059291502 5609:-0.00082949974 5610:-0.0058693611 5611:-0.013871378 5612:-0.0052417284 5614:0.0047944817 5615:-0.02735443 5616:-0.0058693611 5617:-2.0023147e-20 5618:-0.0028112084 5619:-1.5017257e-20 5620:-0.00031515327 5621:-0.0056001502 5622:-0.0056601088 5625:-0.006595823 5626:-2.5028831e-20 5628:-2.0023147e-20 5629:-2.0023147e-20 5630:-0.0053979759 5631:-0.0058179074 5632:0.024843216 5634:-0.0029490404 5635:-0.0085064853 5636:-0.0065032477 5637:-1.5017257e-20 5638:-1.6018415e-19 5639:-0.00065057079 5640:-2.0023147e-20 5641:-0.010013814 5642:-0.0057462747 5643:-0.0011961092 5645:-0.24351628 5647:-0.028316362 5648:0.019822355 5649:-0.0076508904 5650:-0.002417831 5651:-1.5017257e-20 5652:-0.0048276507 5654:-0.0052124229 5655:-0.0041073179 5656:-0.0064907735 5657:-0.00070120959 5658:-0.0048276559 5659:0.018728333 5660:-0.011937965 5661:-0.049143471 5662:-0.015218218 5663:-0.00035960501 5664:-0.0013210755 5665:-0.0043572509 5666:-0.017242029 5667:-0.0004894312 5669:-0.0092716655 5671:-0.0028399823 5672:-0.00018104679 5673:-8.509786e-20 5674:-0.0085983081 5675:0.019528773 5677:-0.013794526 5678:-0.010267125 5680:-2.0023147e-20 5682:-0.015751529 5683:-0.013315437 5685:-0.027531181 5687:-0.082281984 5688:-1.5017257e-20 5689:-0.030797327 5690:-0.030650567 5691:-0.0080636097 5692:-0.0048514185 5694:-2.5028831e-20 5695:-0.0094191385 5698:0.024843415 5699:-0.00049538916 5700:-0.00051396922 5701:-0.0025655041 5702:-0.012264786 5703:-0.0016593644 5704:-0.0064183651 5705:-0.0057915356 5706:-0.0016519486 5707:-1.5017257e-20 5708:-0.0041508642 5709:-4.5051978e-20 5711:-0.021825748 5712:-0.030298188 5713:-0.0064644017 5714:-0.0025140154 5715:-0.00076196168 5716:-0.068222791 5717:-0.0062147737 5718:-0.0052981912 5719:-1.5017257e-20 5720:-0.0092593646 5721:-0.11197437 5723:-2.4528304e-19 5724:0.09312322 5725:-0.0060073924 5726:-0.01432095 5727:-0.00097120658 5729:-0.0054033576 5730:-2.5028831e-20 5731:-0.019311685 5732:0.0044453247 5734:0.0003330372 5735:-0.0010012917 5736:-0.022765063 5738:0.044150449 5739:-0.0024929037 5740:-0.0058693611 5741:-0.017425692 5742:-0.010522721 5743:-0.00035960501 5744:-0.0052128755 5745:-1.5017257e-20 5746:-2.5028831e-20 5747:-0.0058693611 5748:-0.0057462747 5749:-0.0027976602 5750:-0.070693173 5751:-1.5017257e-20 5752:-7.508732e-20 5753:-0.0028744312 5754:-0.0016603366 5755:-0.0043882933 5756:0.035460938 5757:-0.011167528 5758:-0.0044075847 5760:-0.012158737 5761:0.016451871 5762:-0.013240627 5763:-0.014597356 5764:-0.0068367636 5766:-1.6628503e-19 5767:-0.032832861 5768:-1.5017257e-20 5770:-0.0040731416 5771:-0.00095483533 5773:-0.0066874428 5774:-8.5098687e-20 5775:-0.048982419 5776:-0.0095758708 5777:-0.0025140154 5778:-0.0074287523 5779:-0.0053106849 5780:-0.0075706965 5781:-4.0045468e-20 5782:-1.4016121e-19 5784:-0.00049538916 5786:-4.0046088e-20 5787:-8.509786e-20 5789:-0.014400574 5791:-0.0012071121 5792:0.085485443 5793:0.02151425 5794:-0.023353355 5795:-0.0061760186 5796:-0.00035960501 5797:-1.5017257e-20 5798:-2.6123824e-20 5799:-0.0058179074 5800:-2.5028831e-20 5801:0.0049120528 5802:-0.0021544104 5803:-0.0058179074 5804:-0.010089855 5805:-0.001970805 5806:-0.13498442 5807:-0.044082709 5809:-1.5017257e-20 5810:-0.0067336718 5811:-0.0026791496 5812:-0.036707435 5813:-1.8130382e-19 5814:-0.003702058 5815:-2.0023147e-20 5816:0.020042345 5817:-1.9022094e-19 5819:-0.0065179886 5820:0.07614316 5821:-0.00046952398 5822:-0.0058179074 5824:-0.0026791496 5825:-0.083157666 5826:0.029420039 5827:-0.011846771 5829:0.04326915 5831:-0.0058693611 5833:-0.020392578 5834:-0.0058179074 5835:-0.00090000016 5836:-0.0047379192 5837:-0.023327775 5838:-0.00071921002 5839:0.066816464 5840:-0.0057087243 5841:-2.5028831e-20 5842:-0.00031515327 5844:-1.6018415e-19 5845:-0.0063013025 5846:-0.00035960501 5847:0.014187603 5848:-0.0057199015 5849:-0.0097606964 5850:-0.0064398204 5851:-0.0050903806 5852:-0.013625234 5853:-0.0068367636 5854:0.0025976743 5855:0.017019667 5856:-0.0071407822 5857:-0.024583077 5858:-1.1122251e-19 5859:-1.5017257e-20 5860:0.12238838 5861:-2.5028831e-20 5864:-1.5017257e-20 5865:-0.0048088795 5866:-2.0023561e-20 5867:0.025457213 5868:-0.00035960501 5869:0.0070590442 5870:-0.00033506699 5872:-8.6192853e-20 5874:-0.0022419076 5875:-0.011483853 5876:-0.03942633 5877:-0.0067009986 5878:-0.018649494 5879:-1.5017464e-20 5881:-0.002563552 5883:-0.0091345916 5884:-0.0060234717 5885:-4.0046088e-20 5887:0.0034082383 5888:-0.028667178 5889:-2.6123824e-20 5890:-0.003880755 5891:-0.0055096778 5892:-6.5074299e-20 5893:-1.5017257e-20 5895:-0.17072968 5896:0.044422891 5897:-0.019500207 5898:-0.0012132269 5899:-0.0064781429 5900:-4.0046088e-20 5901:0.027494678 5902:-0.0018654563 5905:-0.025408968 5908:-0.0075623607 5910:-0.0027306059 5911:0.048157364 5912:-0.0062712342 5913:-0.0052893637 5914:-0.021519659 5915:-0.07237877 5916:-0.0050946386 5917:-2.0023147e-20 5919:-2.5028831e-20 5920:-0.0049786884 5922:-0.014208682 5924:-0.026103565 5925:-0.0080439756 5926:0.038294755 5927:-2.5028831e-20 5928:-0.0058179074 5930:-1.5017464e-20 5931:-0.0038807199 5932:-1.5017257e-20 5933:-0.0057651624 5934:-0.001970805 5935:-0.0022626338 5936:-1.5017257e-20 5937:0.027430445 5938:-0.0093537858 5941:-0.0088002458 5942:-1.0512142e-19 5944:-0.0010973234 5946:-0.030352024 5947:-0.025408968 5948:-0.039797019 5949:0.00065771054 5950:-0.012240529 5951:-0.011779009 5953:-0.0048156097 5955:0.0086882664 5956:-0.11837091 5957:-0.0057462747 5958:-0.0057726465 5959:-1.5017257e-20 5960:-0.012622464 5962:-0.05791489 5963:-1.5017257e-20 5964:-2.5028831e-20 5965:-0.0084008332 5966:-0.03901476 5967:0.0084481947 5968:-0.0042018266 5971:-0.048379749 5972:-3.0034928e-20 5973:-0.03032068 5975:-0.024897363 5976:-0.00035960501 5977:0.012933953 5979:-0.046297837 5980:-1.2013888e-19 5981:-1.5017257e-20 5982:-1.5017464e-20 5983:-0.0057462747 5984:-0.011799489 5986:-8.6192853e-20 5988:0.043761864 5989:-0.0026338871 5990:-0.0014760356 5991:-0.0058179074 5992:-0.017415971 5994:0.0072461697 5995:-0.0044146688 5996:-8.6192853e-20 5997:-1.6018415e-19 5998:-1.5017257e-20 6000:-0.06484475 6001:-1.5017257e-20 6002:-0.088920109 6005:-0.00096491998 6007:-0.00015436423 6008:-0.020844527 6009:-0.013227168 6010:-0.00051396922 6011:-0.005324115 6012:-0.0055347844 6013:-0.0040731416 6014:-0.0051548458 6015:-0.0082505634 6016:-1.5017464e-20 6018:-0.00035960999 6019:-0.0058179074 6022:-1.6628503e-19 6023:0.021384943 6025:-0.012842705 6026:-0.019148886 6027:-3.5041025e-20 6028:-1.5017257e-20 6029:0.023345327 6031:0.015411278 6032:-0.00015436635 6033:-2.0023147e-20 6034:-0.0053944178 6035:-0.0013150407 6036:0.10189696 6037:-1.5017257e-20 6038:-0.016599907 6039:-0.0082351957 6040:-0.0010611664 6042:-0.02359907 6044:-1.0011512e-19 6045:-0.0056889714 6046:-0.00062522397 6047:-8.5098687e-20 6049:-0.013234867 6051:-9.6204427e-20 6052:-1.6127914e-19 6053:-0.010264116 6055:-1.5017464e-20 6056:-0.015727678 6060:-0.014382222 6061:-1.5017257e-20 6062:-8.509786e-20 6063:-0.006622171 6064:-0.00035960501 6066:0.032741357 6068:-0.0040625064 6069:-6.0069029e-20 6070:-4.0046295e-20 6071:-0.37911806 6072:-4.1141081e-20 6074:-1.5017257e-20 6075:0.029396022 6078:-0.018932465 6079:-0.012155852 6080:0.018489186 6081:-0.0056810267 6082:-0.014642236 6083:-2.5028831e-20 6084:-0.35755619 6085:0.027224619 6086:-0.047105644 6088:0.037614655 6089:0.01609684 6090:0.0034724814 6091:-2.0023147e-20 6092:-0.0058179074 6093:-0.0033279997 6094:-0.15057997 6095:-8.5098687e-20 6096:-1.5518032e-19 6097:0.054618433 6098:-0.0079702791 6099:-0.0086161438 6102:-2.0023147e-20 6103:0.041793093 6104:-0.00031515327 6106:-0.0019263772 6107:-0.041132927 6108:-1.5017257e-20 6109:-0.0082769217 6110:-0.0071547404 6111:-1.5017464e-20 6112:-0.0097606964 6113:0.029420039 6114:-2.0023147e-20 6115:-1.2123346e-19 6116:0.016807131 6119:-1.6018415e-19 6121:-0.0048155175 6122:-0.0054032318 6124:-1.5017257e-20 6126:-0.014373439 6127:0.010659693 6129:-0.00035960501 6131:-0.011589256 6132:-0.0026153426 6133:-0.014092815 6134:-0.020069638 6135:-0.00049538916 6136:-0.01035604 6137:-2.5028831e-20 6138:-0.0056410949 6139:-0.00035960999 6140:-0.00096490671 6141:-0.0043234956 6142:-0.00035960501 6144:-0.00087431644 6145:-0.0052188919 6147:-0.0015161897 6148:-0.0037475727 6150:-0.016953858 6151:-0.25611207 6152:-0.014510044 6153:-0.053618841 6154:-0.00062521535 6155:-8.9477923e-20 6156:-0.0030457592 6158:-0.0059229569 6160:-8.509786e-20 6161:-0.011844334 6162:-1.5017257e-20 6163:-0.017222052 6165:-1.5017257e-20 6166:0.041008409 6167:-0.0042976667 6168:-0.0022656342 6169:-0.0058179074 6170:-0.0082424954 6171:-0.014219985 6172:-0.00031515327 6173:-0.005509668 6174:-0.014658019 6175:-4.1141081e-20 6176:-0.0058179074 6177:-0.029778995 6178:-0.00051396922 6179:-2.6123824e-20 6182:-0.0028744312 6183:-0.00070120959 6184:-0.0055084117 6185:-0.011618653 6186:-8.9477923e-20 6188:-0.00049538916 6189:-0.055420946 6192:-0.0057462747 6193:-1.5017257e-20 6195:-0.00034160455 6197:-0.012178595 6198:-1.5017257e-20 6200:-1.5017257e-20 6202:-2.0023147e-20 6203:-2.5028831e-20 6204:-0.005324115 6205:-0.0028291687 6207:-0.018833138 6208:-0.020752236 6209:-0.0025140154 6210:-0.0057462747 6213:0.021215199 6215:-0.014116925 6216:-0.0058180392 6217:-0.0095758736 6218:-1.6018415e-19 6220:-0.042838305 6221:-0.0014967589 6222:-0.0025654715 6223:-0.013203507 6224:-1.5017257e-20 6225:-0.012436717 6226:0.043199021 6227:-0.0077423058 6228:-0.0055397972 6230:-0.0057977289 6232:-0.014599616 6233:-4.0046088e-20 6234:-0.033443831 6235:-0.0005404026 6236:-2.5028831e-20 6237:-0.025011593 6238:-0.075496592 6239:-0.042807512 6240:-2.5029658e-20 6241:-8.509786e-20 6242:-0.0057462747 6244:-1.1513031e-19 6245:-0.00013578415 6246:-0.0021002307 6247:-2.0023147e-20 6249:-0.0054033576 6250:-1.6518797e-19 6252:0.0059094187 6255:-1.5017257e-20 6256:-0.0043801153 6257:0.023485899 6258:-2.0023147e-20 6259:-0.0041717044 6260:-2.5028831e-20 6261:-0.011173814 6262:-0.024030033 6263:-0.0047337213 6264:-0.0044766855 6266:-0.0038666751 6268:-2.0023147e-20 6270:-1.5017464e-20 6271:-0.0067112972 6272:-8.5098687e-20 6273:-0.005974411 6275:-0.023273353 6276:-0.0041423463 6277:-1.4016286e-19 6278:-0.037554059 6279:-0.014386834 6280:-0.00081054243 6281:-3.5040612e-20 6283:-0.0035119397 6285:-0.034140088 6286:0.025284916 6287:-0.020201283 6288:-0.0096457964 6289:-0.0071167452 6290:-2.5028831e-20 6291:0.13247959 6292:-0.011857477 6293:-0.0043882946 6294:-0.032775488 6295:-0.017965229 6296:-2.0023147e-20 6300:0.022719417 6301:-0.018546861 6303:-0.011972435 6304:-0.00047085114 6305:-0.011655876 6306:-1.6018601e-19 6307:0.011184501 6308:-0.0064393193 6309:-2.0023147e-20 6311:-0.093266658 6312:-4.0046295e-20 6313:-0.0025655041 6314:-0.0011814971 6315:-0.0028291687 6316:-2.5028831e-20 6318:0.036059726 6319:-0.00015436635 6320:-1.5017257e-20 6321:-2.0023147e-20 6322:-0.0069848537 6323:-0.03375642 6324:0.033122137 6325:-0.0090634935 6326:-0.081220672 6327:-0.00051396922 6328:-3.5040612e-20 6329:0.077255994 6330:-2.0023147e-20 6331:-1.5017257e-20 6332:-3.0034514e-20 6333:-0.0084229736 6334:-0.0037380746 6335:0.034294687 6337:-0.013037971 6339:-0.045888469 6340:-0.00096490671 6341:-0.005333452 6342:0.028488306 6343:-5.0057662e-20 6344:-0.0025140154 6345:-0.0094964597 6347:-2.6123824e-20 6348:-0.0028291687 6349:-0.002018654 6351:-0.0077103893 6352:-0.0087158298 6353:0.0035417438 6357:-0.009309222 6358:-2.0023147e-20 6360:-0.0049118078 6361:-0.0083008949 6362:-3.0034514e-20 6363:-0.009309222 6364:9.0106438e-20 6365:-0.0019111153 6366:0.065525755 6367:-0.041035555 6369:-0.10135221 6371:-0.00035960501 6372:-2.5028831e-20 6373:-2.0023147e-20 6374:0.0094301999 6375:0.027231365 6376:-2.0023147e-20 6378:-8.509786e-20 6379:-1.5017257e-20 6380:-1.5017257e-20 6381:-1.8130311e-19 6383:-2.0023147e-20 6384:-0.01061367 6385:-0.011402415 6386:-5.0057662e-20 6388:-1.5017464e-20 6390:-2.0023147e-20 6391:-0.002378264 6392:-0.0063413139 6393:-1.5017464e-20 6394:-0.015596783 6395:-0.00096575078 6396:0.052058529 6397:-1.1513362e-19 6398:-2.5028831e-20 6399:-0.0037380746 6400:0.044753835 6402:-0.028111458 6403:-0.056878347 6404:-0.089714661 6406:-0.040279366 6408:-0.006662101 6411:-0.0054073604 6413:-0.011564207 6415:-0.0035358178 6416:0.29121593 6417:-0.034659266 6418:-0.0058179074 6419:-0.01497046 6420:-0.014410931 6422:0.071232624 6424:-0.0074098338 6425:-0.033624347 6426:-0.0085032778 6427:-0.00051396922 6428:-0.017625902 6429:-0.0028744647 6431:-0.0028291687 6432:-1.5017257e-20 6433:0.10290772 6436:-1.5017257e-20 6439:-1.5017257e-20 6440:-0.00049538916 6441:0.016434472 6443:-0.0043870588 6444:-0.0092409831 6445:-0.0061172834 6446:0.0016024953 6449:-1.5017257e-20 6450:0.035633903 6451:-0.0002058204 6452:-0.0022866363 6453:-0.008764958 6454:-0.013338485 6455:-0.00027156831 6456:-0.19632068 6457:-0.061623339 6458:-0.00056542543 6459:-0.09516336 6463:0.091604799 6464:0.024057191 6465:-0.052483384 6466:-0.0051073693 6468:-0.015126632 6469:0.045719482 6471:-0.005278809 6472:-0.0048426236 6474:-0.00033507159 6475:-0.0052874936 6477:-0.022941865 6478:-0.00146431 6479:-3.0034928e-20 6480:-2.5028831e-20 6482:0.00087434828 6487:-0.014275273 6488:-4.1141081e-20 6489:-0.0014521619 6491:0.025469949 6492:-0.0069175055 6494:0.02407133 6495:-0.050269552 6497:-0.00085499609 6498:-2.0023147e-20 6499:-2.5028831e-20 6500:-0.0060972152 6501:-0.014019379 6502:-0.044752695 6503:-0.0024960428 6505:-0.018782169 6506:0.084254071 6507:-0.0054525794 6508:0.0093173049 6510:-0.0054860413 6511:-0.00074109604 6512:-0.0074977516 6513:-0.0091477875 6514:-0.00035960501 6515:-0.0008814201 6516:-0.037715331 6517:-0.00076191232 6518:0.082297087 6519:-0.0069175055 6520:-0.0028006525 6521:-0.0091380104 6522:-0.00078505883 6523:0.018566715 6524:-0.00269554 6527:-0.12236644 6528:-8.509786e-20 6530:-0.00035960999 6531:-0.00064975343 6533:-0.082311079 6536:-1.5017464e-20 6537:-0.0056410949 6538:0.071386985 6539:-0.072302699 6540:-0.0065961452 6541:0.018728333 6542:0.04504345 6543:-0.020851474 6544:-0.0057462747 6545:-0.0050903806 6546:-0.0088902144 6547:-0.0065641212 6548:-0.011049096 6549:-0.041680209 6551:-0.0070364522 6552:-8.0092176e-20 6553:-0.010718673 6554:-0.051168751 6557:-0.0023769643 6558:0.03022174 6559:-0.00035960501 6560:-1.6018415e-19 6561:-0.065368474 6562:-0.00015436635 6563:-0.035537764 6564:-0.0064398204 6565:-2.0023147e-20 6566:-0.0079701152 6567:-4.0046295e-20 6568:-0.092315227 6569:-0.00062521535 6570:-0.01829461 6571:-0.014410931 6572:-0.011565271 6573:-0.0013114213 6574:-0.0030331295 6575:0.049578644 6576:-8.509786e-20 6577:-2.0023147e-20 6578:-1.6018415e-19 6579:-0.013624445 6581:-0.0064907288 6583:-0.00013578415 6585:0.039427184 6586:-1.5017464e-20 6587:-0.0056310594 6588:-0.00087431644 6589:-0.00071921997 6590:0.033008669 6591:-0.0048646238 6592:-0.005966648 6594:-0.0050578052 6595:-0.024143502 6596:-2.0023147e-20 6599:-0.011387923 6600:-1.5017464e-20 6603:-0.013798752 6604:0.031319115 6605:-0.0047828923 6606:-0.023306904 6608:-0.0064187008 6609:-0.0052893637 6610:0.014960456 6611:-0.014797796 6612:-0.0066874428 6614:0.071386985 6615:-0.0067926184 6616:-0.00035960501 6617:-0.0047749421 6619:-0.003667197 6620:-0.0034318075 6621:-0.13027869 6622:-2.5028831e-20 6624:0.014947878 6626:-0.0013513148 6627:-0.0047038253 6628:-0.012034688 6629:-0.02929917 6630:0.017335514 6631:-2.0023147e-20 6632:-1.5017257e-20 6633:-0.0064129476 6636:-0.0069476664 6638:0.025529021 6639:0.0062249722 6640:-0.046520665 6641:0.09674567 6642:-2.0023147e-20 6643:-0.0043234956 6645:-0.02260734 6647:-0.0093178162 6650:-0.020258024 6652:-1.5017257e-20 6653:-0.036133219 6654:-0.006622171 6655:-0.0085256556 6657:-0.0016926585 6658:0.0048311274 6659:-0.006595823 6661:-0.0020456377 6662:-0.10065559 6663:-0.0089295143 6664:-2.0023147e-20 6665:-0.0010012989 6666:-0.014279668 6667:-2.0023147e-20 6668:-0.070307225 6669:-1.5017257e-20 6670:-0.010602995 6671:-0.0010357844 6673:-0.12367492 6674:-1.0621641e-19 6675:-0.030527389 6676:-0.0080567421 6677:-0.0084008304 6679:-0.0039172531 6680:-0.0098280627 6681:-0.025408968 6684:-0.027684784 6686:-0.001081047 6687:-0.017265001 6688:-0.0031745734 6690:-0.00098482042 6691:-0.0051336982 6692:-0.0064907735 6693:-0.070377626 6694:-0.011618653 6695:-0.0049733394 6697:-1.5017257e-20 6699:-2.0023147e-20 6700:-0.0094964597 6703:-0.02141053 6707:-1.5017464e-20 6708:-0.012197121 6709:-0.11308167 6710:-0.00051397632 6711:-0.025129031 6712:-0.00013578415 6713:-0.0051694973 6714:-0.0066874428 6716:-0.091429792 6717:-0.017425692 6718:-0.006595823 6719:-1.5017464e-20 6720:-0.0055084117 6721:-2.0023147e-20 6723:-3.0034514e-20 6724:-0.0071828389 6725:-0.0050833328 6726:-1.5017257e-20 6727:-2.5028831e-20 6728:0.10355333 6729:-0.00033541315 6730:-0.040835407 6731:-0.01025437 6732:-8.509786e-20 6733:-0.0025377907 6734:-0.014382222 